{
  "save_name": "freeplay snapshot (1 alive)",
  "mode": "freeplay",
  "snapshot": true,
  "timestamp": "20260315_132243",
  "settings": {
    "population_size": 50,
    "generation_time_limit": 30.0,
    "top_performers_count": 10,
    "min_population": 0,
    "extinction_threshold": 0,
    "max_generations": 0,
    "mutation_rate": 0.1,
    "mutation_strength": 0.3,
    "crossover_rate": 0.0,
    "trait_mutation_range": 5,
    "weight_clamp": 0.0,
    "world_width": 1920,
    "world_height": 1009,
    "food_spawn_rate": 5.0,
    "food_energy": 100,
    "initial_food_count": 30,
    "world_wrap": false,
    "food_decay_time": 15.0,
    "corpse_decay_time": 10.0,
    "food_cluster_size": 4,
    "food_respawn_chance": 1.0,
    "food_min": 0,
    "food_max": 0,
    "season_length": 60.0,
    "season_min_rate": 0.2,
    "season_enabled": false,
    "biome_count": 4,
    "base_energy": 100.0,
    "energy_cost_per_thrust": 0.01,
    "turn_cost": 0.35000000000000003,
    "food_heal": 0.0,
    "fitness_food_weight": 10.0,
    "fitness_time_weight": 0.1,
    "fitness_energy_weight": 0.05,
    "territory_fitness_weight": 0.0,
    "fitness_offspring_weight": 5.0,
    "convergence_max_generations": 50,
    "day_night_enabled": false,
    "day_night_cycle_length": 90.0,
    "night_vision_multiplier": 0.3,
    "hazard_count": 3,
    "predator_count": 0,
    "predator_speed": 2.0,
    "predator_vision": 150.0,
    "predator_damage": 5.0,
    "predator_radius": 8.0,
    "predator_stamina": 0.0,
    "predator_respawn_interval": 0.0,
    "freeplay_initial_population": 40,
    "freeplay_carrying_capacity": 80,
    "freeplay_hard_cap": 120,
    "freeplay_breed_min_age": 5.0,
    "freeplay_breed_min_food": 3,
    "freeplay_breed_energy_threshold": 0.6,
    "freeplay_breed_cooldown": 10.0,
    "freeplay_breed_energy_cost": 30.0,
    "freeplay_child_energy": 60.0,
    "freeplay_child_spawn_radius": 30.0,
    "freeplay_overcapacity_food_penalty": 0.5
  },
  "creatures": [
    {
      "dna": {
        "weights": {
          "W1": [
            [
              -0.1074968866112751,
              1.7757212304510523,
              -0.10630878815193079,
              -0.4028056995634565,
              0.3409626544010401,
              0.5309953505281405,
              -1.3724694455144715,
              0.509580717499838
            ],
            [
              -0.47938072914993374,
              -0.8182164376253208,
              -0.5751343173435288,
              0.07961917485197331,
              -1.592974459664871,
              -1.245429532496627,
              -0.21680087293819228,
              -1.7648228595845246
            ],
            [
              -0.07435782815682009,
              -3.013013284260997,
              1.3426026902986545,
              -0.05705494345202794,
              0.3501628435707952,
              -0.41151503889075963,
              1.5143910307473183,
              1.0335294937754238
            ],
            [
              -1.3336248647851914,
              -0.9945696985483191,
              1.8332251929885583,
              0.9390754369574652,
              0.0064288941032693,
              -1.3325954504695603,
              -0.6766435997869353,
              0.2081333374336594
            ],
            [
              -1.049605060516888,
              -2.068556327609343,
              -0.9028294950996866,
              0.597902221824471,
              0.10841846133512822,
              -4.273912006973374,
              -1.5964735028925396,
              -0.45423087276911794
            ],
            [
              -0.2598729117521441,
              0.5467456216676745,
              1.1296871164963078,
              0.5647627451325722,
              1.0695398373557823,
              0.6532818110388566,
              0.30085850597509534,
              -0.7562477330541812
            ],
            [
              0.1748197651326752,
              0.2727041262342066,
              0.9580216655071745,
              -1.5331421635473275,
              -0.18982965596161855,
              -0.20731792573778735,
              -0.11891104587370693,
              0.14706527420015592
            ],
            [
              0.2705923686098193,
              -0.2674170771778218,
              1.2566011589101618,
              1.0426095879408555,
              -0.6517791392375991,
              -0.584270310346953,
              1.1302258348345897,
              -1.0904215156363235
            ],
            [
              -0.07764463563995072,
              0.26492044217456034,
              0.7539487795178668,
              -0.23073423839857266,
              0.3144627227897702,
              0.519494202453517,
              -0.017693774401962015,
              -0.6566927767132553
            ],
            [
              -0.23750675177631492,
              -3.2531303445863125,
              -0.3829468659607572,
              0.842162817922785,
              0.35920523567753887,
              -0.42629141310972474,
              -0.3323300443209136,
              0.8687380442732283
            ],
            [
              -0.8244950805833139,
              1.8507462560385377,
              -1.513186187616816,
              -0.5495709992980053,
              -0.1036289437560376,
              -0.5599523064972765,
              0.799668646897874,
              -0.7146256408804188
            ],
            [
              -2.850630419671706,
              1.3242522887410972,
              -1.1289939708641892,
              0.06840504217864013,
              -0.0012108403741897672,
              2.1832901294613296,
              -1.1319523555370776,
              0.7333281800535872
            ]
          ],
          "b1": [
            -0.6500545595318429,
            0.1192098022421726,
            0.6937199173457058,
            0.298639869892177,
            -0.6538861118015263,
            0.6016061932134266,
            -0.644490030187253,
            1.0116210860711334
          ],
          "W2": [
            [
              -1.3729843715449965,
              0.008517756803569143
            ],
            [
              -1.6025519340827563,
              0.7056922713367877
            ],
            [
              -2.024689909776375,
              1.9179036279282542
            ],
            [
              0.5619379191050179,
              -0.3431067538615723
            ],
            [
              -0.36599767962965973,
              0.6563374012330838
            ],
            [
              -0.018150307651986816,
              1.8666157649756858
            ],
            [
              0.1044282575650078,
              0.5271994654200154
            ],
            [
              -0.5715504598125198,
              0.3864484379406554
            ]
          ],
          "b2": [
            -1.3924418754794736,
            -0.48350105125353043
          ]
        },
        "speed": 28,
        "size": 6,
        "vision": 25,
        "efficiency": 20,
        "lifespan": 21,
        "diet": 2
      },
      "x": 1776.7454585285561,
      "y": 199.2326537313463,
      "heading": 5.199419980705332,
      "speed": 0.19912553570566724,
      "energy": 135.4412106681714,
      "food_eaten": 3,
      "age": 20.50899999999964,
      "alive": false,
      "lineage": "",
      "last_turn": 0.0006713187304175176,
      "under_attack": 0.0,
      "death_processed": true,
      "territory_cells": [
        [
          22,
          2
        ],
        [
          22,
          3
        ]
      ],
      "breed_cooldown": 6.843000000000009,
      "offspring_count": 1,
      "generation": 4
    },
    {
      "dna": {
        "weights": {
          "W1": [
            [
              -0.7690861897901092,
              1.7757212304510523,
              -0.10630878815193079,
              -0.34875840094902727,
              0.1743453398901817,
              0.5309953505281405,
              -1.3724694455144715,
              0.509580717499838
            ],
            [
              -0.47938072914993374,
              -1.1829703438469452,
              -0.6000296113398167,
              0.07961917485197331,
              -1.592974459664871,
              -1.2741831254465779,
              -0.5466338844356629,
              -1.5439219033018077
            ],
            [
              -0.15217524688003942,
              -2.646600021644441,
              0.9820433069810556,
              0.11371739459916325,
              0.5687252351486125,
              -0.16241142731688463,
              1.8487579813719741,
              1.0335294937754238
            ],
            [
              -1.3336248647851914,
              -1.0822581711704444,
              1.8398999798396067,
              0.6685781907265459,
              -0.5990325108965278,
              -1.1818558024784314,
              -0.6766435997869353,
              0.10674755087602258
            ],
            [
              -1.0079484426893268,
              -2.068556327609343,
              -0.6815554632577431,
              0.597902221824471,
              -0.0024508235864292988,
              -4.331138811869062,
              -1.8536388964427577,
              -0.45423087276911794
            ],
            [
              -0.2598729117521441,
              -0.353303046358936,
              1.1296871164963078,
              0.5647627451325722,
              1.0695398373557823,
              0.526153366045123,
              -0.1792773017908375,
              -0.9978715129749741
            ],
            [
              0.049873654740475004,
              0.9960497983987923,
              0.7483735446966541,
              -1.5331421635473275,
              -0.18982965596161855,
              -0.05503485576307912,
              -0.5095822473178209,
              0.14706527420015592
            ],
            [
              0.1256433063547377,
              -0.3244697850234153,
              0.9349397774449085,
              1.3125770316887369,
              -0.6517791392375991,
              -0.4606414755181195,
              1.1302258348345897,
              -1.0141129737031978
            ],
            [
              -0.3293004401394384,
              0.26492044217456034,
              0.7539487795178668,
              0.21595844824202365,
              0.3144627227897702,
              0.519494202453517,
              -0.017693774401962015,
              -0.277070337945375
            ],
            [
              -0.24646316681422606,
              -3.0507979007077437,
              -0.395981538988344,
              1.273222351360294,
              0.39351885797565406,
              -0.6680987494747044,
              -0.714612569509408,
              0.6692767656308983
            ],
            [
              -0.7483800239898314,
              1.8507462560385377,
              -1.513186187616816,
              -0.5495709992980053,
              -0.4405754250264834,
              -0.4703626587772005,
              0.799668646897874,
              -0.6382121196960675
            ],
            [
              -3.0884196751311763,
              1.088891167018244,
              -0.3452884815155082,
              0.06840504217864013,
              -0.0012108403741897672,
              2.0028552309974534,
              -1.1319523555370776,
              0.8410913497201749
            ]
          ],
          "b1": [
            -0.6139905426818526,
            0.04238755275580201,
            0.3821583062599605,
            0.298639869892177,
            -0.8987966183038536,
            0.7780103112196826,
            -0.644490030187253,
            0.5542812878750683
          ],
          "W2": [
            [
              -1.3729843715449965,
              0.288499080413461
            ],
            [
              -1.2803469478782799,
              -0.06744573933430181
            ],
            [
              -2.1953177723152524,
              2.101893336841143
            ],
            [
              0.5619379191050179,
              0.25072447995558805
            ],
            [
              -0.22722791892668892,
              0.6563374012330838
            ],
            [
              -0.17526790803332726,
              1.1564962149038691
            ],
            [
              0.35446075359069706,
              0.5271994654200154
            ],
            [
              -0.3840891585064301,
              0.349142692987732
            ]
          ],
          "b2": [
            -1.3924418754794736,
            -0.4545308895997705
          ]
        },
        "speed": 28,
        "size": 6,
        "vision": 33,
        "efficiency": 11,
        "lifespan": 22,
        "diet": 2
      },
      "x": 1736.5544493468526,
      "y": 408.9473329275376,
      "heading": 0.8898168734996663,
      "speed": 0.4983033024296901,
      "energy": 1484.9778091522787,
      "food_eaten": 27,
      "age": 21.013999999999555,
      "alive": false,
      "lineage": "",
      "last_turn": 0.00405118015767636,
      "under_attack": 0.0,
      "death_processed": true,
      "territory_cells": [
        [
          20,
          5
        ],
        [
          19,
          8
        ],
        [
          20,
          8
        ],
        [
          18,
          7
        ],
        [
          19,
          4
        ],
        [
          20,
          4
        ],
        [
          19,
          7
        ],
        [
          21,
          3
        ],
        [
          22,
          4
        ],
        [
          19,
          6
        ],
        [
          20,
          6
        ],
        [
          19,
          3
        ],
        [
          21,
          5
        ],
        [
          20,
          3
        ],
        [
          19,
          2
        ],
        [
          21,
          4
        ],
        [
          20,
          2
        ],
        [
          19,
          5
        ]
      ],
      "breed_cooldown": 3.998,
      "offspring_count": 2,
      "generation": 3
    },
    {
      "dna": {
        "weights": {
          "W1": [
            [
              -0.7690861897901092,
              1.7757212304510523,
              -0.10630878815193079,
              -0.34875840094902727,
              0.06856233606633966,
              1.3730342286376773,
              -1.3724694455144715,
              0.509580717499838
            ],
            [
              -0.47938072914993374,
              -1.1829703438469452,
              -0.4667497794873854,
              0.07961917485197331,
              -1.592974459664871,
              -1.1134670879039732,
              -0.5466338844356629,
              -1.5346998386616972
            ],
            [
              -0.15217524688003942,
              -2.4317725135489385,
              0.9820433069810556,
              -0.09084500487401512,
              0.7058681895202154,
              -0.16241142731688463,
              1.8487579813719741,
              1.0335294937754238
            ],
            [
              -1.3336248647851914,
              -1.0822581711704444,
              1.8398999798396067,
              0.6685781907265459,
              -0.5990325108965278,
              -1.5249672679594144,
              -0.6766435997869353,
              0.053477655604612095
            ],
            [
              -1.0079484426893268,
              -2.068556327609343,
              -0.6815554632577431,
              0.597902221824471,
              -0.0024508235864292988,
              -4.331138811869062,
              -1.5964735028925396,
              -0.45423087276911794
            ],
            [
              -0.2598729117521441,
              -0.353303046358936,
              1.1296871164963078,
              0.3267998663840569,
              1.0695398373557823,
              0.526153366045123,
              -0.2301305950953782,
              -1.1742116283379058
            ],
            [
              0.1233719250999845,
              0.8404978089727464,
              0.7483735446966541,
              -1.5331421635473275,
              -0.8479431111750972,
              -0.05503485576307912,
              -0.5095822473178209,
              0.14706527420015592
            ],
            [
              0.1256433063547377,
              -0.3244697850234153,
              0.9349397774449085,
              1.3125770316887369,
              -0.6517791392375991,
              -0.4606414755181195,
              1.1302258348345897,
              -1.0141129737031978
            ],
            [
              -0.3293004401394384,
              0.26492044217456034,
              0.7539487795178668,
              0.21595844824202365,
              0.3079215639765032,
              0.519494202453517,
              -0.017693774401962015,
              -0.277070337945375
            ],
            [
              -0.24646316681422606,
              -3.2531303445863125,
              -0.395981538988344,
              1.273222351360294,
              0.35920523567753887,
              -0.6680987494747044,
              -0.714612569509408,
              0.6692767656308983
            ],
            [
              -0.7483800239898314,
              1.8507462560385377,
              -1.513186187616816,
              -0.5495709992980053,
              -0.4405754250264834,
              -0.4703626587772005,
              0.799668646897874,
              -0.6382121196960675
            ],
            [
              -3.0884196751311763,
              1.2191149577718627,
              -0.3452884815155082,
              0.06840504217864013,
              -0.0012108403741897672,
              2.0028552309974534,
              -1.1319523555370776,
              0.8410913497201749
            ]
          ],
          "b1": [
            -0.6139905426818526,
            0.04238755275580201,
            0.3821583062599605,
            0.7565163035974123,
            -0.6047880364960165,
            0.6016061932134266,
            -0.644490030187253,
            0.5542812878750683
          ],
          "W2": [
            [
              -1.067916613765705,
              0.2667047890289138
            ],
            [
              -1.2803469478782799,
              -0.06744573933430181
            ],
            [
              -2.1953177723152524,
              2.101893336841143
            ],
            [
              0.5619379191050179,
              -0.17567535287620661
            ],
            [
              -0.22722791892668892,
              0.5779503068785874
            ],
            [
              -0.018150307651986816,
              1.1564962149038691
            ],
            [
              0.3661918614761777,
              0.5271994654200154
            ],
            [
              -0.3840891585064301,
              0.349142692987732
            ]
          ],
          "b2": [
            -1.3924418754794736,
            -0.4545308895997705
          ]
        },
        "speed": 29,
        "size": 3,
        "vision": 29,
        "efficiency": 10,
        "lifespan": 29,
        "diet": 2
      },
      "x": 1787.6634796277028,
      "y": 671.0402318534047,
      "heading": 1.964600207495325,
      "speed": 0.7397576961334166,
      "energy": 0.12724670711357813,
      "food_eaten": 5,
      "age": 24.513999999999385,
      "alive": false,
      "lineage": "",
      "last_turn": 0.010065763601636647,
      "under_attack": 0.0,
      "death_processed": true,
      "territory_cells": [
        [
          22,
          8
        ],
        [
          20,
          7
        ],
        [
          21,
          6
        ],
        [
          22,
          7
        ],
        [
          20,
          6
        ],
        [
          21,
          8
        ],
        [
          21,
          7
        ]
      ],
      "breed_cooldown": 8.473000000000011,
      "offspring_count": 2,
      "generation": 4
    },
    {
      "dna": {
        "weights": {
          "W1": [
            [
              -0.1074968866112751,
              1.7757212304510523,
              -0.10630878815193079,
              -0.4028056995634565,
              0.3409626544010401,
              0.5309953505281405,
              -1.3724694455144715,
              0.509580717499838
            ],
            [
              -0.47938072914993374,
              -0.8182164376253208,
              -0.5751343173435288,
              0.07961917485197331,
              -1.592974459664871,
              -1.245429532496627,
              -0.21680087293819228,
              -1.7648228595845246
            ],
            [
              -0.07435782815682009,
              -3.013013284260997,
              1.3426026902986545,
              0.08524617616917063,
              0.3501628435707952,
              -0.41151503889075963,
              1.600334375987671,
              1.0335294937754238
            ],
            [
              -1.3336248647851914,
              -0.9945696985483191,
              1.8332251929885583,
              1.0229974076918433,
              0.0064288941032693,
              -1.3325954504695603,
              -0.6766435997869353,
              0.2081333374336594
            ],
            [
              -1.049605060516888,
              -2.068556327609343,
              -0.9028294950996866,
              0.597902221824471,
              0.10841846133512822,
              -4.273912006973374,
              -1.5964735028925396,
              -0.45423087276911794
            ],
            [
              -0.2598729117521441,
              0.5467456216676745,
              1.1296871164963078,
              0.5647627451325722,
              1.0695398373557823,
              0.6532818110388566,
              0.30085850597509534,
              -0.42939924502880084
            ],
            [
              0.1748197651326752,
              0.2727041262342066,
              0.9580216655071745,
              -1.5331421635473275,
              -0.18982965596161855,
              -0.20731792573778735,
              0.2906987604169606,
              0.14706527420015592
            ],
            [
              0.2705923686098193,
              -0.2674170771778218,
              0.9480551579057458,
              1.0426095879408555,
              -0.6517791392375991,
              -0.584270310346953,
              1.1302258348345897,
              -1.0904215156363235
            ],
            [
              -0.07764463563995072,
              0.26492044217456034,
              0.7539487795178668,
              -0.23073423839857266,
              0.3144627227897702,
              0.519494202453517,
              -0.017693774401962015,
              -0.6566927767132553
            ],
            [
              -0.23750675177631492,
              -3.2531303445863125,
              -0.6355687571408681,
              0.842162817922785,
              0.0368148114778688,
              -0.42629141310972474,
              -0.3323300443209136,
              0.8687380442732283
            ],
            [
              -0.8244950805833139,
              1.8507462560385377,
              -1.513186187616816,
              -0.5495709992980053,
              -0.1036289437560376,
              -0.5599523064972765,
              0.799668646897874,
              -0.7146256408804188
            ],
            [
              -2.8013500152839144,
              1.3242522887410972,
              -1.1289939708641892,
              0.06840504217864013,
              -0.0012108403741897672,
              2.1832901294613296,
              -1.1319523555370776,
              0.7333281800535872
            ]
          ],
          "b1": [
            -0.6500545595318429,
            0.1192098022421726,
            0.6937199173457058,
            0.02518956763507829,
            -0.6538861118015263,
            0.6016061932134266,
            -1.0520539423845312,
            1.0116210860711334
          ],
          "W2": [
            [
              -1.3729843715449965,
              0.008517756803569143
            ],
            [
              -1.6025519340827563,
              0.7056922713367877
            ],
            [
              -2.024689909776375,
              1.9179036279282542
            ],
            [
              0.5619379191050179,
              -0.3431067538615723
            ],
            [
              -0.36599767962965973,
              0.6563374012330838
            ],
            [
              -0.018150307651986816,
              1.8666157649756858
            ],
            [
              0.1044282575650078,
              0.5271994654200154
            ],
            [
              -0.5715504598125198,
              0.3864484379406554
            ]
          ],
          "b2": [
            -1.3924418754794736,
            -0.48350105125353043
          ]
        },
        "speed": 29,
        "size": 4,
        "vision": 21,
        "efficiency": 22,
        "lifespan": 24,
        "diet": 2
      },
      "x": 1835.1054038018995,
      "y": 168.61870295933142,
      "heading": 0.16549137262978936,
      "speed": 0.09749073510906527,
      "energy": 293.21136919804053,
      "food_eaten": 5,
      "age": 22.002999999999464,
      "alive": false,
      "lineage": "",
      "last_turn": 0.0017870842791291388,
      "under_attack": 0.0,
      "death_processed": true,
      "territory_cells": [
        [
          21,
          2
        ],
        [
          22,
          2
        ]
      ],
      "breed_cooldown": 6.528000000000019,
      "offspring_count": 1,
      "generation": 5
    },
    {
      "dna": {
        "weights": {
          "W1": [
            [
              -0.7690861897901092,
              1.7757212304510523,
              -0.10630878815193079,
              -0.34875840094902727,
              0.1743453398901817,
              0.5309953505281405,
              -1.3724694455144715,
              0.42860232051322683
            ],
            [
              -0.47938072914993374,
              -1.1829703438469452,
              -0.6000296113398167,
              0.07961917485197331,
              -1.592974459664871,
              -1.2741831254465779,
              -0.5466338844356629,
              -1.5439219033018077
            ],
            [
              -0.15217524688003942,
              -2.646600021644441,
              0.9820433069810556,
              0.11371739459916325,
              0.5687252351486125,
              -0.01401667006942664,
              1.8487579813719741,
              1.0335294937754238
            ],
            [
              -1.3336248647851914,
              -1.0822581711704444,
              1.8398999798396067,
              0.6685781907265459,
              -0.5990325108965278,
              -1.1818558024784314,
              -0.6766435997869353,
              0.10674755087602258
            ],
            [
              -1.0079484426893268,
              -2.068556327609343,
              -0.6815554632577431,
              0.597902221824471,
              -0.0024508235864292988,
              -4.331138811869062,
              -2.283633153030085,
              -0.034867491318955224
            ],
            [
              -0.2598729117521441,
              -0.15687839711593463,
              0.5614858496733365,
              0.5647627451325722,
              1.0695398373557823,
              0.526153366045123,
              -0.1792773017908375,
              -0.9978715129749741
            ],
            [
              -0.05119924658827331,
              0.9960497983987923,
              0.8452480841250765,
              -1.5331421635473275,
              -0.18982965596161855,
              -0.05503485576307912,
              -0.5095822473178209,
              0.14706527420015592
            ],
            [
              0.1256433063547377,
              -0.3244697850234153,
              1.683985708550291,
              1.3125770316887369,
              -0.6517791392375991,
              -0.4606414755181195,
              1.1302258348345897,
              -1.0141129737031978
            ],
            [
              -0.23423715569585785,
              0.26492044217456034,
              0.7539487795178668,
              0.21595844824202365,
              0.03762862979115078,
              0.519494202453517,
              -0.017693774401962015,
              -0.277070337945375
            ],
            [
              -0.24646316681422606,
              -3.0507979007077437,
              -0.395981538988344,
              1.273222351360294,
              0.39351885797565406,
              -0.6680987494747044,
              -0.714612569509408,
              0.6692767656308983
            ],
            [
              -0.7483800239898314,
              1.8507462560385377,
              -1.513186187616816,
              -0.5495709992980053,
              -0.4405754250264834,
              -0.4703626587772005,
              0.799668646897874,
              -0.6382121196960675
            ],
            [
              -3.0884196751311763,
              1.088891167018244,
              -0.3452884815155082,
              0.06840504217864013,
              -0.0012108403741897672,
              2.0028552309974534,
              -1.1319523555370776,
              0.8410913497201749
            ]
          ],
          "b1": [
            -0.6139905426818526,
            0.04238755275580201,
            0.3821583062599605,
            0.298639869892177,
            -0.8987966183038536,
            0.7780103112196826,
            -0.644490030187253,
            0.5542812878750683
          ],
          "W2": [
            [
              -1.3729843715449965,
              0.288499080413461
            ],
            [
              -1.2803469478782799,
              -0.06744573933430181
            ],
            [
              -2.1953177723152524,
              2.101893336841143
            ],
            [
              0.5619379191050179,
              0.25072447995558805
            ],
            [
              -0.22722791892668892,
              0.6563374012330838
            ],
            [
              -0.17526790803332726,
              1.1564962149038691
            ],
            [
              0.5836701457169114,
              0.5271994654200154
            ],
            [
              -0.3840891585064301,
              0.349142692987732
            ]
          ],
          "b2": [
            -0.9902535034777222,
            -0.4545308895997705
          ]
        },
        "speed": 25,
        "size": 6,
        "vision": 35,
        "efficiency": 9,
        "lifespan": 25,
        "diet": 2
      },
      "x": 1735.9821940915097,
      "y": 298.7086940870456,
      "heading": 5.9234614896515145,
      "speed": 2.2336423565174464,
      "energy": -0.3149550355110785,
      "food_eaten": 0,
      "age": 2.0429999999999975,
      "alive": false,
      "lineage": "",
      "last_turn": 0.937366177116305,
      "under_attack": 0.0,
      "death_processed": true,
      "territory_cells": [
        [
          21,
          3
        ],
        [
          21,
          4
        ],
        [
          19,
          4
        ],
        [
          20,
          4
        ]
      ],
      "breed_cooldown": 0.0,
      "offspring_count": 0,
      "generation": 4
    },
    {
      "dna": {
        "weights": {
          "W1": [
            [
              -0.7690861897901092,
              1.7757212304510523,
              -0.10630878815193079,
              -0.34875840094902727,
              0.06856233606633966,
              1.3730342286376773,
              -1.3724694455144715,
              0.509580717499838
            ],
            [
              -0.47938072914993374,
              -1.1829703438469452,
              -0.4667497794873854,
              0.07961917485197331,
              -1.592974459664871,
              -1.1134670879039732,
              -0.5466338844356629,
              -1.5346998386616972
            ],
            [
              -0.15217524688003942,
              -2.4317725135489385,
              0.9820433069810556,
              -0.09084500487401512,
              0.7058681895202154,
              -0.00047244942448826377,
              1.8487579813719741,
              1.0872553056320013
            ],
            [
              -1.3336248647851914,
              -1.0822581711704444,
              1.8398999798396067,
              0.6685781907265459,
              -0.5990325108965278,
              -1.5249672679594144,
              -0.6766435997869353,
              0.053477655604612095
            ],
            [
              -1.0079484426893268,
              -2.068556327609343,
              -0.9367058480692754,
              0.597902221824471,
              -0.0024508235864292988,
              -4.331138811869062,
              -1.5964735028925396,
              -0.45423087276911794
            ],
            [
              -0.2598729117521441,
              -0.353303046358936,
              1.1296871164963078,
              -0.15882765696594076,
              0.7161976644768134,
              0.526153366045123,
              -0.2301305950953782,
              -1.1742116283379058
            ],
            [
              -0.06357555210108577,
              0.4394435245214798,
              1.0920314150067465,
              -1.5331421635473275,
              -0.8479431111750972,
              -0.05503485576307912,
              -0.5095822473178209,
              0.14706527420015592
            ],
            [
              0.1256433063547377,
              -0.3244697850234153,
              0.9349397774449085,
              1.3125770316887369,
              -0.6517791392375991,
              -0.4606414755181195,
              1.1302258348345897,
              -1.0141129737031978
            ],
            [
              -0.3293004401394384,
              0.26492044217456034,
              0.7539487795178668,
              0.21595844824202365,
              0.3079215639765032,
              0.519494202453517,
              -0.017693774401962015,
              -0.277070337945375
            ],
            [
              -0.24646316681422606,
              -3.2531303445863125,
              -0.4956216309734655,
              1.273222351360294,
              0.35920523567753887,
              -0.6680987494747044,
              -0.714612569509408,
              0.9949687008362667
            ],
            [
              -0.7483800239898314,
              1.8507462560385377,
              -1.513186187616816,
              -0.5495709992980053,
              -0.4405754250264834,
              -0.4703626587772005,
              0.799668646897874,
              -0.6382121196960675
            ],
            [
              -3.0884196751311763,
              1.2191149577718627,
              -0.3452884815155082,
              0.06840504217864013,
              -0.4286366204128884,
              2.0028552309974534,
              -1.0720410365597486,
              0.8410913497201749
            ]
          ],
          "b1": [
            -0.6139905426818526,
            0.04238755275580201,
            0.3821583062599605,
            0.7565163035974123,
            -0.6047880364960165,
            0.6016061932134266,
            -0.644490030187253,
            0.5542812878750683
          ],
          "W2": [
            [
              -1.067916613765705,
              0.2667047890289138
            ],
            [
              -1.2803469478782799,
              -0.06744573933430181
            ],
            [
              -2.1953177723152524,
              2.101893336841143
            ],
            [
              0.5619379191050179,
              -0.17567535287620661
            ],
            [
              -0.22722791892668892,
              0.5779503068785874
            ],
            [
              -0.018150307651986816,
              1.1564962149038691
            ],
            [
              0.3661918614761777,
              0.5296425169407684
            ],
            [
              -0.3840891585064301,
              0.349142692987732
            ]
          ],
          "b2": [
            -1.3924418754794736,
            -0.4545308895997705
          ]
        },
        "speed": 31,
        "size": 1,
        "vision": 24,
        "efficiency": 9,
        "lifespan": 35,
        "diet": 2
      },
      "x": 1710.0412586199006,
      "y": 617.220777855192,
      "heading": 6.117511467370351,
      "speed": 1.5898888404749905,
      "energy": -0.3460931231880354,
      "food_eaten": 0,
      "age": 1.1380000000000006,
      "alive": false,
      "lineage": "",
      "last_turn": 0.9694485243362334,
      "under_attack": 0.0,
      "death_processed": true,
      "territory_cells": [
        [
          21,
          6
        ],
        [
          21,
          7
        ]
      ],
      "breed_cooldown": 0.0,
      "offspring_count": 0,
      "generation": 5
    },
    {
      "dna": {
        "weights": {
          "W1": [
            [
              -0.7690861897901092,
              1.7757212304510523,
              -0.10630878815193079,
              -0.29272625032425187,
              0.06856233606633966,
              1.3730342286376773,
              -1.3724694455144715,
              0.509580717499838
            ],
            [
              -0.47938072914993374,
              -1.1829703438469452,
              -0.4667497794873854,
              0.07961917485197331,
              -1.592974459664871,
              -1.1134670879039732,
              -0.5466338844356629,
              -1.5346998386616972
            ],
            [
              -0.15217524688003942,
              -2.4317725135489385,
              0.9820433069810556,
              -0.09084500487401512,
              0.7058681895202154,
              -0.16241142731688463,
              1.8487579813719741,
              1.0335294937754238
            ],
            [
              -1.3336248647851914,
              -1.0822581711704444,
              1.8398999798396067,
              0.6685781907265459,
              -0.5990325108965278,
              -1.5249672679594144,
              -0.6766435997869353,
              0.053477655604612095
            ],
            [
              -1.0079484426893268,
              -2.068556327609343,
              -0.6815554632577431,
              0.597902221824471,
              -0.0024508235864292988,
              -4.331138811869062,
              -1.5964735028925396,
              -0.45423087276911794
            ],
            [
              -0.2598729117521441,
              -0.353303046358936,
              1.1296871164963078,
              0.3267998663840569,
              1.0695398373557823,
              0.526153366045123,
              -0.2301305950953782,
              -1.1742116283379058
            ],
            [
              0.1233719250999845,
              0.8404978089727464,
              0.7483735446966541,
              -1.5331421635473275,
              -0.8479431111750972,
              -0.05503485576307912,
              -0.5095822473178209,
              0.14706527420015592
            ],
            [
              0.1256433063547377,
              -0.3244697850234153,
              0.9349397774449085,
              1.3125770316887369,
              -0.6517791392375991,
              -0.4606414755181195,
              1.1302258348345897,
              -1.0141129737031978
            ],
            [
              -0.3293004401394384,
              0.26492044217456034,
              0.7539487795178668,
              0.21595844824202365,
              0.3079215639765032,
              0.519494202453517,
              -0.017693774401962015,
              -0.277070337945375
            ],
            [
              -0.24646316681422606,
              -3.2531303445863125,
              -0.395981538988344,
              1.273222351360294,
              0.35920523567753887,
              -0.6680987494747044,
              -0.714612569509408,
              0.6692767656308983
            ],
            [
              -0.7483800239898314,
              1.8507462560385377,
              -1.5537641942340508,
              -0.5495709992980053,
              -0.463794579912876,
              -0.4703626587772005,
              0.799668646897874,
              -0.6382121196960675
            ],
            [
              -3.0884196751311763,
              1.2191149577718627,
              -0.3452884815155082,
              0.06840504217864013,
              -0.0012108403741897672,
              2.0028552309974534,
              -1.1319523555370776,
              1.0098091512381466
            ]
          ],
          "b1": [
            -0.6139905426818526,
            0.04238755275580201,
            0.3821583062599605,
            0.7565163035974123,
            -0.6047880364960165,
            0.8830306365713446,
            -0.644490030187253,
            0.5542812878750683
          ],
          "W2": [
            [
              -1.067916613765705,
              0.2667047890289138
            ],
            [
              -1.2803469478782799,
              -0.06744573933430181
            ],
            [
              -2.1953177723152524,
              2.101893336841143
            ],
            [
              0.5619379191050179,
              -0.17567535287620661
            ],
            [
              -0.22722791892668892,
              0.5779503068785874
            ],
            [
              -0.018150307651986816,
              1.1564962149038691
            ],
            [
              0.3661918614761777,
              0.5271994654200154
            ],
            [
              -0.3840891585064301,
              0.349142692987732
            ]
          ],
          "b2": [
            -1.3924418754794736,
            -0.4545308895997705
          ]
        },
        "speed": 31,
        "size": 2,
        "vision": 29,
        "efficiency": 10,
        "lifespan": 28,
        "diet": 2
      },
      "x": 1800.4120713902032,
      "y": 645.4666220464081,
      "heading": 1.4135030255467091,
      "speed": 2.4999378454724845,
      "energy": -1.0453751947061556,
      "food_eaten": 0,
      "age": 1.175,
      "alive": false,
      "lineage": "",
      "last_turn": 3.1112356985302245,
      "under_attack": 0.0,
      "death_processed": true,
      "territory_cells": [
        [
          22,
          7
        ],
        [
          22,
          8
        ]
      ],
      "breed_cooldown": 0.0,
      "offspring_count": 0,
      "generation": 5
    },
    {
      "dna": {
        "weights": {
          "W1": [
            [
              -0.1074968866112751,
              1.7757212304510523,
              -0.10630878815193079,
              -0.4028056995634565,
              0.3409626544010401,
              0.5309953505281405,
              -1.3724694455144715,
              0.509580717499838
            ],
            [
              -0.47938072914993374,
              -0.8182164376253208,
              -0.5751343173435288,
              0.07961917485197331,
              -1.592974459664871,
              -1.245429532496627,
              -0.21680087293819228,
              -1.7648228595845246
            ],
            [
              -0.07435782815682009,
              -3.013013284260997,
              1.3426026902986545,
              0.08524617616917063,
              0.3501628435707952,
              -0.41151503889075963,
              1.600334375987671,
              1.3132787197399818
            ],
            [
              -1.3336248647851914,
              -0.9945696985483191,
              1.8332251929885583,
              1.0229974076918433,
              0.0064288941032693,
              -1.3325954504695603,
              -0.6766435997869353,
              0.2081333374336594
            ],
            [
              -1.049605060516888,
              -2.068556327609343,
              -0.9028294950996866,
              0.597902221824471,
              0.10841846133512822,
              -4.273912006973374,
              -1.5964735028925396,
              -0.45423087276911794
            ],
            [
              -0.2598729117521441,
              0.5467456216676745,
              1.1296871164963078,
              0.5647627451325722,
              0.760832288214689,
              0.6532818110388566,
              0.30085850597509534,
              -0.42939924502880084
            ],
            [
              0.1748197651326752,
              0.2727041262342066,
              0.9580216655071745,
              -1.5331421635473275,
              -0.18982965596161855,
              -0.20731792573778735,
              0.27114925321181654,
              0.14706527420015592
            ],
            [
              0.2705923686098193,
              -0.2674170771778218,
              0.9480551579057458,
              1.0426095879408555,
              -0.6517791392375991,
              -0.584270310346953,
              1.1302258348345897,
              -1.0904215156363235
            ],
            [
              -0.07764463563995072,
              0.26492044217456034,
              0.7539487795178668,
              -0.23073423839857266,
              0.3144627227897702,
              0.519494202453517,
              -0.017693774401962015,
              -0.6566927767132553
            ],
            [
              -0.23750675177631492,
              -2.9994544106544767,
              -0.6355687571408681,
              0.842162817922785,
              0.0368148114778688,
              -0.42629141310972474,
              -0.3323300443209136,
              0.8687380442732283
            ],
            [
              -0.8244950805833139,
              1.8507462560385377,
              -1.513186187616816,
              -0.5495709992980053,
              -0.1036289437560376,
              -0.5599523064972765,
              0.799668646897874,
              -0.788162505020926
            ],
            [
              -2.8013500152839144,
              1.3242522887410972,
              -1.1289939708641892,
              0.06840504217864013,
              -0.0012108403741897672,
              2.1832901294613296,
              -1.1319523555370776,
              0.7333281800535872
            ]
          ],
          "b1": [
            -0.6500545595318429,
            0.1192098022421726,
            0.6937199173457058,
            0.02518956763507829,
            -0.6538861118015263,
            0.6016061932134266,
            -1.0520539423845312,
            1.0116210860711334
          ],
          "W2": [
            [
              -1.3729843715449965,
              0.008517756803569143
            ],
            [
              -1.6025519340827563,
              0.7056922713367877
            ],
            [
              -2.024689909776375,
              1.9179036279282542
            ],
            [
              0.5619379191050179,
              -0.3431067538615723
            ],
            [
              -0.36599767962965973,
              0.6563374012330838
            ],
            [
              -0.018150307651986816,
              1.8666157649756858
            ],
            [
              0.1044282575650078,
              0.5271994654200154
            ],
            [
              -0.5715504598125198,
              0.3864484379406554
            ]
          ],
          "b2": [
            -0.8999271848141355,
            -0.48350105125353043
          ]
        },
        "speed": 24,
        "size": 5,
        "vision": 24,
        "efficiency": 21,
        "lifespan": 26,
        "diet": 2
      },
      "x": 1838.9584527542945,
      "y": 155.7204526135621,
      "heading": 2.5185225733362273,
      "speed": 0.1136506499967744,
      "energy": 162.12354851124795,
      "food_eaten": 2,
      "age": 4.866999999999999,
      "alive": true,
      "lineage": "",
      "last_turn": 0.003530683758031103,
      "under_attack": 0.0,
      "death_processed": false,
      "territory_cells": [
        [
          22,
          1
        ],
        [
          23,
          1
        ]
      ],
      "breed_cooldown": 0.0,
      "offspring_count": 0,
      "generation": 6
    }
  ],
  "food": [
    {
      "x": 1030.1441617397013,
      "y": 890.8389999626863,
      "energy": 100,
      "radius": 4.0,
      "age": 14.826999999999936,
      "lifetime": 15.0,
      "is_corpse": false
    },
    {
      "x": 1058.8988910099342,
      "y": 870.4749363242205,
      "energy": 100,
      "radius": 4.0,
      "age": 14.826999999999936,
      "lifetime": 15.0,
      "is_corpse": false
    },
    {
      "x": 1038.6666315517564,
      "y": 867.6194337826861,
      "energy": 100,
      "radius": 4.0,
      "age": 14.826999999999936,
      "lifetime": 15.0,
      "is_corpse": false
    },
    {
      "x": 985.7818886705027,
      "y": 859.5992487023007,
      "energy": 100,
      "radius": 4.0,
      "age": 14.826999999999936,
      "lifetime": 15.0,
      "is_corpse": false
    },
    {
      "x": 66.15974482699906,
      "y": 390.67601760667975,
      "energy": 100,
      "radius": 4.0,
      "age": 14.639999999999935,
      "lifetime": 15.0,
      "is_corpse": false
    },
    {
      "x": 133.8761172697908,
      "y": 455.7729562141383,
      "energy": 100,
      "radius": 4.0,
      "age": 14.639999999999935,
      "lifetime": 15.0,
      "is_corpse": false
    },
    {
      "x": 37.32872678895335,
      "y": 449.9943479995844,
      "energy": 100,
      "radius": 4.0,
      "age": 14.639999999999935,
      "lifetime": 15.0,
      "is_corpse": false
    },
    {
      "x": 147.39618492593132,
      "y": 403.17484677917935,
      "energy": 100,
      "radius": 4.0,
      "age": 14.639999999999935,
      "lifetime": 15.0,
      "is_corpse": false
    },
    {
      "x": 1826.0067898092316,
      "y": 120.9737948717295,
      "energy": 100,
      "radius": 4.0,
      "age": 14.437999999999937,
      "lifetime": 15.0,
      "is_corpse": false
    },
    {
      "x": 1776.8382365370207,
      "y": 107.06999631686435,
      "energy": 100,
      "radius": 4.0,
      "age": 14.437999999999937,
      "lifetime": 15.0,
      "is_corpse": false
    },
    {
      "x": 1782.625717337786,
      "y": 488.25623248495805,
      "energy": 100,
      "radius": 4.0,
      "age": 14.325999999999938,
      "lifetime": 15.0,
      "is_corpse": false
    },
    {
      "x": 808.3259769220508,
      "y": 117.64186663139947,
      "energy": 100,
      "radius": 4.0,
      "age": 14.22499999999994,
      "lifetime": 15.0,
      "is_corpse": false
    },
    {
      "x": 858.9247861012669,
      "y": 62.43210236504384,
      "energy": 100,
      "radius": 4.0,
      "age": 14.22499999999994,
      "lifetime": 15.0,
      "is_corpse": false
    },
    {
      "x": 807.9954465820861,
      "y": 124.34141178973346,
      "energy": 100,
      "radius": 4.0,
      "age": 14.22499999999994,
      "lifetime": 15.0,
      "is_corpse": false
    },
    {
      "x": 753.5611086993061,
      "y": 121.08212586816262,
      "energy": 100,
      "radius": 4.0,
      "age": 14.22499999999994,
      "lifetime": 15.0,
      "is_corpse": false
    },
    {
      "x": 313.2511101514268,
      "y": 759.093691667083,
      "energy": 100,
      "radius": 4.0,
      "age": 14.038999999999948,
      "lifetime": 15.0,
      "is_corpse": false
    },
    {
      "x": 382.7445255997197,
      "y": 745.5398924506696,
      "energy": 100,
      "radius": 4.0,
      "age": 14.038999999999948,
      "lifetime": 15.0,
      "is_corpse": false
    },
    {
      "x": 386.28191850879017,
      "y": 683.263333025134,
      "energy": 100,
      "radius": 4.0,
      "age": 14.038999999999948,
      "lifetime": 15.0,
      "is_corpse": false
    },
    {
      "x": 372.4597038071299,
      "y": 691.1248983728233,
      "energy": 100,
      "radius": 4.0,
      "age": 14.038999999999948,
      "lifetime": 15.0,
      "is_corpse": false
    },
    {
      "x": 1332.5592252041333,
      "y": 801.9449129811786,
      "energy": 100,
      "radius": 4.0,
      "age": 13.825999999999956,
      "lifetime": 15.0,
      "is_corpse": false
    },
    {
      "x": 1285.2935790675658,
      "y": 809.0161282216768,
      "energy": 100,
      "radius": 4.0,
      "age": 13.825999999999956,
      "lifetime": 15.0,
      "is_corpse": false
    },
    {
      "x": 1303.2255076732827,
      "y": 772.1559101602546,
      "energy": 100,
      "radius": 4.0,
      "age": 13.825999999999956,
      "lifetime": 15.0,
      "is_corpse": false
    },
    {
      "x": 1285.4647384169489,
      "y": 842.4694067009956,
      "energy": 100,
      "radius": 4.0,
      "age": 13.825999999999956,
      "lifetime": 15.0,
      "is_corpse": false
    },
    {
      "x": 1836.2520142019061,
      "y": 720.8124046392995,
      "energy": 100,
      "radius": 4.0,
      "age": 13.639999999999953,
      "lifetime": 15.0,
      "is_corpse": false
    },
    {
      "x": 1835.0072961951641,
      "y": 768.7896301145258,
      "energy": 100,
      "radius": 4.0,
      "age": 13.639999999999953,
      "lifetime": 15.0,
      "is_corpse": false
    },
    {
      "x": 1819.7647135378797,
      "y": 751.2437965196685,
      "energy": 100,
      "radius": 4.0,
      "age": 13.639999999999953,
      "lifetime": 15.0,
      "is_corpse": false
    },
    {
      "x": 1874.0662710900297,
      "y": 748.167257952196,
      "energy": 100,
      "radius": 4.0,
      "age": 13.639999999999953,
      "lifetime": 15.0,
      "is_corpse": false
    },
    {
      "x": 144.4942137418166,
      "y": 369.60752173758027,
      "energy": 100,
      "radius": 4.0,
      "age": 13.440999999999956,
      "lifetime": 15.0,
      "is_corpse": false
    },
    {
      "x": 86.28608242750647,
      "y": 305.1738574261318,
      "energy": 100,
      "radius": 4.0,
      "age": 13.440999999999956,
      "lifetime": 15.0,
      "is_corpse": false
    },
    {
      "x": 99.67211780406191,
      "y": 348.70154397777947,
      "energy": 100,
      "radius": 4.0,
      "age": 13.440999999999956,
      "lifetime": 15.0,
      "is_corpse": false
    },
    {
      "x": 71.57676065201433,
      "y": 361.1595718852671,
      "energy": 100,
      "radius": 4.0,
      "age": 13.440999999999956,
      "lifetime": 15.0,
      "is_corpse": false
    },
    {
      "x": 1578.2085300190342,
      "y": 799.5083363213871,
      "energy": 100,
      "radius": 4.0,
      "age": 13.224999999999959,
      "lifetime": 15.0,
      "is_corpse": false
    },
    {
      "x": 1632.6927844060424,
      "y": 740.8829364998829,
      "energy": 100,
      "radius": 4.0,
      "age": 13.224999999999959,
      "lifetime": 15.0,
      "is_corpse": false
    },
    {
      "x": 1662.608711232972,
      "y": 777.9929849840695,
      "energy": 100,
      "radius": 4.0,
      "age": 13.224999999999959,
      "lifetime": 15.0,
      "is_corpse": false
    },
    {
      "x": 1578.732195731699,
      "y": 767.3721560203975,
      "energy": 100,
      "radius": 4.0,
      "age": 13.224999999999959,
      "lifetime": 15.0,
      "is_corpse": false
    },
    {
      "x": 638.6963320833088,
      "y": 645.4046373079098,
      "energy": 100,
      "radius": 4.0,
      "age": 13.038999999999957,
      "lifetime": 15.0,
      "is_corpse": false
    },
    {
      "x": 647.6661457331473,
      "y": 588.8007785958805,
      "energy": 100,
      "radius": 4.0,
      "age": 13.038999999999957,
      "lifetime": 15.0,
      "is_corpse": false
    },
    {
      "x": 662.1651697710676,
      "y": 581.649290390759,
      "energy": 100,
      "radius": 4.0,
      "age": 13.038999999999957,
      "lifetime": 15.0,
      "is_corpse": false
    },
    {
      "x": 717.3582412545923,
      "y": 581.1625440917527,
      "energy": 100,
      "radius": 4.0,
      "age": 13.038999999999957,
      "lifetime": 15.0,
      "is_corpse": false
    },
    {
      "x": 653.5436401344989,
      "y": 163.38265558791815,
      "energy": 100,
      "radius": 4.0,
      "age": 12.838999999999967,
      "lifetime": 15.0,
      "is_corpse": false
    },
    {
      "x": 621.987508327443,
      "y": 155.0635096606598,
      "energy": 100,
      "radius": 4.0,
      "age": 12.838999999999967,
      "lifetime": 15.0,
      "is_corpse": false
    },
    {
      "x": 576.6958506054048,
      "y": 83.27812003009176,
      "energy": 100,
      "radius": 4.0,
      "age": 12.838999999999967,
      "lifetime": 15.0,
      "is_corpse": false
    },
    {
      "x": 610.1087485171231,
      "y": 165.56119864194923,
      "energy": 100,
      "radius": 4.0,
      "age": 12.838999999999967,
      "lifetime": 15.0,
      "is_corpse": false
    },
    {
      "x": 1469.4999845568714,
      "y": 81.10025115833959,
      "energy": 100,
      "radius": 4.0,
      "age": 12.639999999999965,
      "lifetime": 15.0,
      "is_corpse": false
    },
    {
      "x": 1492.003046338846,
      "y": 110.38953693504962,
      "energy": 100,
      "radius": 4.0,
      "age": 12.639999999999965,
      "lifetime": 15.0,
      "is_corpse": false
    },
    {
      "x": 1509.6914771813567,
      "y": 78.08412148413754,
      "energy": 100,
      "radius": 4.0,
      "age": 12.639999999999965,
      "lifetime": 15.0,
      "is_corpse": false
    },
    {
      "x": 1467.0786517517115,
      "y": 85.44849696894187,
      "energy": 100,
      "radius": 4.0,
      "age": 12.639999999999965,
      "lifetime": 15.0,
      "is_corpse": false
    },
    {
      "x": 1753.1696798554915,
      "y": 576.1108751437594,
      "energy": 100,
      "radius": 4.0,
      "age": 12.42699999999997,
      "lifetime": 15.0,
      "is_corpse": false
    },
    {
      "x": 1835.5582738618073,
      "y": 561.2834221338949,
      "energy": 100,
      "radius": 4.0,
      "age": 12.42699999999997,
      "lifetime": 15.0,
      "is_corpse": false
    },
    {
      "x": 1795.773716473096,
      "y": 539.3567138889381,
      "energy": 100,
      "radius": 4.0,
      "age": 12.42699999999997,
      "lifetime": 15.0,
      "is_corpse": false
    },
    {
      "x": 316.0877326057161,
      "y": 327.75627659602634,
      "energy": 100,
      "radius": 4.0,
      "age": 12.229999999999972,
      "lifetime": 15.0,
      "is_corpse": false
    },
    {
      "x": 300.4415546894366,
      "y": 293.2012929567719,
      "energy": 100,
      "radius": 4.0,
      "age": 12.229999999999972,
      "lifetime": 15.0,
      "is_corpse": false
    },
    {
      "x": 281.6857448829479,
      "y": 287.1438020098493,
      "energy": 100,
      "radius": 4.0,
      "age": 12.229999999999972,
      "lifetime": 15.0,
      "is_corpse": false
    },
    {
      "x": 284.3187284958074,
      "y": 321.8445288552668,
      "energy": 100,
      "radius": 4.0,
      "age": 12.229999999999972,
      "lifetime": 15.0,
      "is_corpse": false
    },
    {
      "x": 1207.9690675232864,
      "y": 544.2958112617307,
      "energy": 100,
      "radius": 4.0,
      "age": 12.030999999999976,
      "lifetime": 15.0,
      "is_corpse": false
    },
    {
      "x": 1238.3092823041225,
      "y": 529.4093076521722,
      "energy": 100,
      "radius": 4.0,
      "age": 12.030999999999976,
      "lifetime": 15.0,
      "is_corpse": false
    },
    {
      "x": 1250.772350766731,
      "y": 610.2371476843283,
      "energy": 100,
      "radius": 4.0,
      "age": 12.030999999999976,
      "lifetime": 15.0,
      "is_corpse": false
    },
    {
      "x": 1237.4402838977508,
      "y": 523.9572725037685,
      "energy": 100,
      "radius": 4.0,
      "age": 12.030999999999976,
      "lifetime": 15.0,
      "is_corpse": false
    },
    {
      "x": 473.26766103455503,
      "y": 94.7566715918027,
      "energy": 100,
      "radius": 4.0,
      "age": 11.826999999999977,
      "lifetime": 15.0,
      "is_corpse": false
    },
    {
      "x": 432.89599221040794,
      "y": 48.87292839291996,
      "energy": 100,
      "radius": 4.0,
      "age": 11.826999999999977,
      "lifetime": 15.0,
      "is_corpse": false
    },
    {
      "x": 457.5861153942562,
      "y": 50.528461734141494,
      "energy": 100,
      "radius": 4.0,
      "age": 11.826999999999977,
      "lifetime": 15.0,
      "is_corpse": false
    },
    {
      "x": 426.19616563418447,
      "y": 81.83597238111803,
      "energy": 100,
      "radius": 4.0,
      "age": 11.826999999999977,
      "lifetime": 15.0,
      "is_corpse": false
    },
    {
      "x": 450.7188191213125,
      "y": 4.0,
      "energy": 100,
      "radius": 4.0,
      "age": 11.628999999999978,
      "lifetime": 15.0,
      "is_corpse": false
    },
    {
      "x": 400.3719689624755,
      "y": 4.0,
      "energy": 100,
      "radius": 4.0,
      "age": 11.628999999999978,
      "lifetime": 15.0,
      "is_corpse": false
    },
    {
      "x": 472.4702143332935,
      "y": 41.585831907513146,
      "energy": 100,
      "radius": 4.0,
      "age": 11.628999999999978,
      "lifetime": 15.0,
      "is_corpse": false
    },
    {
      "x": 457.70077017124885,
      "y": 4.0,
      "energy": 100,
      "radius": 4.0,
      "age": 11.628999999999978,
      "lifetime": 15.0,
      "is_corpse": false
    },
    {
      "x": 1238.928792974434,
      "y": 18.68932463980837,
      "energy": 100,
      "radius": 4.0,
      "age": 11.433999999999982,
      "lifetime": 15.0,
      "is_corpse": false
    },
    {
      "x": 1267.9150765871939,
      "y": 58.9989780156171,
      "energy": 100,
      "radius": 4.0,
      "age": 11.433999999999982,
      "lifetime": 15.0,
      "is_corpse": false
    },
    {
      "x": 1292.6599797279318,
      "y": 15.323911682539453,
      "energy": 100,
      "radius": 4.0,
      "age": 11.433999999999982,
      "lifetime": 15.0,
      "is_corpse": false
    },
    {
      "x": 1266.832830729964,
      "y": 19.97150373359126,
      "energy": 100,
      "radius": 4.0,
      "age": 11.433999999999982,
      "lifetime": 15.0,
      "is_corpse": false
    },
    {
      "x": 1084.3990900891858,
      "y": 390.32944161430305,
      "energy": 100,
      "radius": 4.0,
      "age": 11.234999999999987,
      "lifetime": 15.0,
      "is_corpse": false
    },
    {
      "x": 1160.9463467322294,
      "y": 420.21548891736893,
      "energy": 100,
      "radius": 4.0,
      "age": 11.234999999999987,
      "lifetime": 15.0,
      "is_corpse": false
    },
    {
      "x": 1122.8738896104182,
      "y": 435.3325084293698,
      "energy": 100,
      "radius": 4.0,
      "age": 11.234999999999987,
      "lifetime": 15.0,
      "is_corpse": false
    },
    {
      "x": 1110.93041146591,
      "y": 333.3402870349361,
      "energy": 100,
      "radius": 4.0,
      "age": 11.234999999999987,
      "lifetime": 15.0,
      "is_corpse": false
    },
    {
      "x": 1579.8027494295854,
      "y": 315.515159888776,
      "energy": 100,
      "radius": 4.0,
      "age": 11.037999999999988,
      "lifetime": 15.0,
      "is_corpse": false
    },
    {
      "x": 1597.9472905170114,
      "y": 309.85548544720973,
      "energy": 100,
      "radius": 4.0,
      "age": 11.037999999999988,
      "lifetime": 15.0,
      "is_corpse": false
    },
    {
      "x": 1549.2879534289448,
      "y": 346.83386880602393,
      "energy": 100,
      "radius": 4.0,
      "age": 11.037999999999988,
      "lifetime": 15.0,
      "is_corpse": false
    },
    {
      "x": 1615.4882562686334,
      "y": 348.7988559759144,
      "energy": 100,
      "radius": 4.0,
      "age": 11.037999999999988,
      "lifetime": 15.0,
      "is_corpse": false
    },
    {
      "x": 1551.8284205898237,
      "y": 314.28096503248247,
      "energy": 100,
      "radius": 4.0,
      "age": 10.836999999999996,
      "lifetime": 15.0,
      "is_corpse": false
    },
    {
      "x": 1587.203662435661,
      "y": 316.42624377137486,
      "energy": 100,
      "radius": 4.0,
      "age": 10.836999999999996,
      "lifetime": 15.0,
      "is_corpse": false
    },
    {
      "x": 1580.0527385382827,
      "y": 351.3952241906237,
      "energy": 100,
      "radius": 4.0,
      "age": 10.836999999999996,
      "lifetime": 15.0,
      "is_corpse": false
    },
    {
      "x": 1598.9886950822868,
      "y": 300.3704086665132,
      "energy": 100,
      "radius": 4.0,
      "age": 10.836999999999996,
      "lifetime": 15.0,
      "is_corpse": false
    },
    {
      "x": 58.12692237663724,
      "y": 130.31286469176632,
      "energy": 100,
      "radius": 4.0,
      "age": 10.637999999999996,
      "lifetime": 15.0,
      "is_corpse": false
    },
    {
      "x": 91.78988529003439,
      "y": 94.5188734081956,
      "energy": 100,
      "radius": 4.0,
      "age": 10.637999999999996,
      "lifetime": 15.0,
      "is_corpse": false
    },
    {
      "x": 127.19315977671837,
      "y": 137.78371935046545,
      "energy": 100,
      "radius": 4.0,
      "age": 10.637999999999996,
      "lifetime": 15.0,
      "is_corpse": false
    },
    {
      "x": 109.94075120201943,
      "y": 142.06538045694478,
      "energy": 100,
      "radius": 4.0,
      "age": 10.637999999999996,
      "lifetime": 15.0,
      "is_corpse": false
    },
    {
      "x": 586.6924077516779,
      "y": 715.2798822363186,
      "energy": 100,
      "radius": 4.0,
      "age": 10.439000000000004,
      "lifetime": 15.0,
      "is_corpse": false
    },
    {
      "x": 615.1934146352369,
      "y": 721.7413362311116,
      "energy": 100,
      "radius": 4.0,
      "age": 10.439000000000004,
      "lifetime": 15.0,
      "is_corpse": false
    },
    {
      "x": 569.9270309065224,
      "y": 693.5449024956756,
      "energy": 100,
      "radius": 4.0,
      "age": 10.439000000000004,
      "lifetime": 15.0,
      "is_corpse": false
    },
    {
      "x": 590.8546639758284,
      "y": 706.4472360999295,
      "energy": 100,
      "radius": 4.0,
      "age": 10.439000000000004,
      "lifetime": 15.0,
      "is_corpse": false
    },
    {
      "x": 1261.042175693324,
      "y": 277.6715600661388,
      "energy": 100,
      "radius": 4.0,
      "age": 10.240000000000006,
      "lifetime": 15.0,
      "is_corpse": false
    },
    {
      "x": 1246.9913284085665,
      "y": 323.1166815717679,
      "energy": 100,
      "radius": 4.0,
      "age": 10.240000000000006,
      "lifetime": 15.0,
      "is_corpse": false
    },
    {
      "x": 1249.856108378614,
      "y": 234.202230916432,
      "energy": 100,
      "radius": 4.0,
      "age": 10.240000000000006,
      "lifetime": 15.0,
      "is_corpse": false
    },
    {
      "x": 1267.0510909982706,
      "y": 273.04399603518607,
      "energy": 100,
      "radius": 4.0,
      "age": 10.240000000000006,
      "lifetime": 15.0,
      "is_corpse": false
    },
    {
      "x": 1888.310172443525,
      "y": 947.1328997770848,
      "energy": 100,
      "radius": 4.0,
      "age": 10.027000000000006,
      "lifetime": 15.0,
      "is_corpse": false
    },
    {
      "x": 1876.6902489122538,
      "y": 919.163068123315,
      "energy": 100,
      "radius": 4.0,
      "age": 10.027000000000006,
      "lifetime": 15.0,
      "is_corpse": false
    },
    {
      "x": 1883.6833101560162,
      "y": 909.267240577277,
      "energy": 100,
      "radius": 4.0,
      "age": 10.027000000000006,
      "lifetime": 15.0,
      "is_corpse": false
    },
    {
      "x": 1916.0,
      "y": 937.2089942167158,
      "energy": 100,
      "radius": 4.0,
      "age": 10.027000000000006,
      "lifetime": 15.0,
      "is_corpse": false
    },
    {
      "x": 164.28404671242754,
      "y": 171.61725618889335,
      "energy": 100,
      "radius": 4.0,
      "age": 9.825000000000005,
      "lifetime": 15.0,
      "is_corpse": false
    },
    {
      "x": 210.07849117487328,
      "y": 134.97031511638497,
      "energy": 100,
      "radius": 4.0,
      "age": 9.825000000000005,
      "lifetime": 15.0,
      "is_corpse": false
    },
    {
      "x": 155.90587088239303,
      "y": 156.2719993800467,
      "energy": 100,
      "radius": 4.0,
      "age": 9.825000000000005,
      "lifetime": 15.0,
      "is_corpse": false
    },
    {
      "x": 194.8599453139914,
      "y": 203.34626267706125,
      "energy": 100,
      "radius": 4.0,
      "age": 9.825000000000005,
      "lifetime": 15.0,
      "is_corpse": false
    },
    {
      "x": 1324.7491780515206,
      "y": 476.47358838858315,
      "energy": 100,
      "radius": 4.0,
      "age": 9.628000000000007,
      "lifetime": 15.0,
      "is_corpse": false
    },
    {
      "x": 1243.828725819897,
      "y": 549.7119182745332,
      "energy": 100,
      "radius": 4.0,
      "age": 9.628000000000007,
      "lifetime": 15.0,
      "is_corpse": false
    },
    {
      "x": 1236.9963843945525,
      "y": 496.77452879259107,
      "energy": 100,
      "radius": 4.0,
      "age": 9.628000000000007,
      "lifetime": 15.0,
      "is_corpse": false
    },
    {
      "x": 1266.4589499310844,
      "y": 519.7107944181853,
      "energy": 100,
      "radius": 4.0,
      "age": 9.628000000000007,
      "lifetime": 15.0,
      "is_corpse": false
    },
    {
      "x": 1909.8017840679975,
      "y": 201.6952239411686,
      "energy": 100,
      "radius": 4.0,
      "age": 9.431000000000015,
      "lifetime": 15.0,
      "is_corpse": false
    },
    {
      "x": 1916.0,
      "y": 238.14832086134365,
      "energy": 100,
      "radius": 4.0,
      "age": 9.431000000000015,
      "lifetime": 15.0,
      "is_corpse": false
    },
    {
      "x": 1833.3526414912615,
      "y": 250.31224521214307,
      "energy": 100,
      "radius": 4.0,
      "age": 9.431000000000015,
      "lifetime": 15.0,
      "is_corpse": false
    },
    {
      "x": 1871.7037224472883,
      "y": 167.6943245740983,
      "energy": 100,
      "radius": 4.0,
      "age": 9.431000000000015,
      "lifetime": 15.0,
      "is_corpse": false
    },
    {
      "x": 1690.0995813248298,
      "y": 408.6226313333003,
      "energy": 100,
      "radius": 4.0,
      "age": 9.233000000000018,
      "lifetime": 15.0,
      "is_corpse": false
    },
    {
      "x": 1705.3629361472854,
      "y": 347.41640925252295,
      "energy": 100,
      "radius": 4.0,
      "age": 9.233000000000018,
      "lifetime": 15.0,
      "is_corpse": false
    },
    {
      "x": 1688.7375298199518,
      "y": 365.7114259536694,
      "energy": 100,
      "radius": 4.0,
      "age": 9.233000000000018,
      "lifetime": 15.0,
      "is_corpse": false
    },
    {
      "x": 1698.0816254886229,
      "y": 387.53287035774343,
      "energy": 100,
      "radius": 4.0,
      "age": 9.233000000000018,
      "lifetime": 15.0,
      "is_corpse": false
    },
    {
      "x": 1433.122624285024,
      "y": 616.7845281068071,
      "energy": 100,
      "radius": 4.0,
      "age": 9.031000000000029,
      "lifetime": 15.0,
      "is_corpse": false
    },
    {
      "x": 1429.6192266018215,
      "y": 652.6216509001514,
      "energy": 100,
      "radius": 4.0,
      "age": 9.031000000000029,
      "lifetime": 15.0,
      "is_corpse": false
    },
    {
      "x": 1458.5292838788623,
      "y": 595.0038902692896,
      "energy": 100,
      "radius": 4.0,
      "age": 9.031000000000029,
      "lifetime": 15.0,
      "is_corpse": false
    },
    {
      "x": 1465.463084190975,
      "y": 618.401751498845,
      "energy": 100,
      "radius": 4.0,
      "age": 9.031000000000029,
      "lifetime": 15.0,
      "is_corpse": false
    },
    {
      "x": 703.7439767923142,
      "y": 956.973291912126,
      "energy": 100,
      "radius": 4.0,
      "age": 8.830000000000027,
      "lifetime": 15.0,
      "is_corpse": false
    },
    {
      "x": 638.5992809152394,
      "y": 927.3822384441914,
      "energy": 100,
      "radius": 4.0,
      "age": 8.830000000000027,
      "lifetime": 15.0,
      "is_corpse": false
    },
    {
      "x": 717.7388383186782,
      "y": 941.1779143097983,
      "energy": 100,
      "radius": 4.0,
      "age": 8.830000000000027,
      "lifetime": 15.0,
      "is_corpse": false
    },
    {
      "x": 714.027168639499,
      "y": 934.0798565423037,
      "energy": 100,
      "radius": 4.0,
      "age": 8.830000000000027,
      "lifetime": 15.0,
      "is_corpse": false
    },
    {
      "x": 1893.1553526733219,
      "y": 212.80544357169313,
      "energy": 100,
      "radius": 4.0,
      "age": 8.626000000000026,
      "lifetime": 15.0,
      "is_corpse": false
    },
    {
      "x": 297.6265011799655,
      "y": 156.32572560290401,
      "energy": 100,
      "radius": 4.0,
      "age": 8.439000000000027,
      "lifetime": 15.0,
      "is_corpse": false
    },
    {
      "x": 277.16207167906504,
      "y": 191.68553343482864,
      "energy": 100,
      "radius": 4.0,
      "age": 8.439000000000027,
      "lifetime": 15.0,
      "is_corpse": false
    },
    {
      "x": 279.1818038392911,
      "y": 201.8716807863859,
      "energy": 100,
      "radius": 4.0,
      "age": 8.439000000000027,
      "lifetime": 15.0,
      "is_corpse": false
    },
    {
      "x": 235.66888878213865,
      "y": 241.0831426032313,
      "energy": 100,
      "radius": 4.0,
      "age": 8.439000000000027,
      "lifetime": 15.0,
      "is_corpse": false
    },
    {
      "x": 1307.9060702600002,
      "y": 534.6956825981441,
      "energy": 100,
      "radius": 4.0,
      "age": 8.293000000000024,
      "lifetime": 15.0,
      "is_corpse": false
    },
    {
      "x": 262.83785731258,
      "y": 965.3525257018913,
      "energy": 100,
      "radius": 4.0,
      "age": 8.228000000000026,
      "lifetime": 15.0,
      "is_corpse": false
    },
    {
      "x": 213.00075740926746,
      "y": 943.9132101200813,
      "energy": 100,
      "radius": 4.0,
      "age": 8.228000000000026,
      "lifetime": 15.0,
      "is_corpse": false
    },
    {
      "x": 297.72499967450995,
      "y": 912.5128275064579,
      "energy": 100,
      "radius": 4.0,
      "age": 8.228000000000026,
      "lifetime": 15.0,
      "is_corpse": false
    },
    {
      "x": 278.00730079401734,
      "y": 934.0985408302853,
      "energy": 100,
      "radius": 4.0,
      "age": 8.228000000000026,
      "lifetime": 15.0,
      "is_corpse": false
    },
    {
      "x": 1194.9916773351958,
      "y": 591.5444202038428,
      "energy": 100,
      "radius": 4.0,
      "age": 8.032000000000032,
      "lifetime": 15.0,
      "is_corpse": false
    },
    {
      "x": 1248.4017182743894,
      "y": 605.8931196520874,
      "energy": 100,
      "radius": 4.0,
      "age": 8.032000000000032,
      "lifetime": 15.0,
      "is_corpse": false
    },
    {
      "x": 1247.5156355150555,
      "y": 562.1378832134567,
      "energy": 100,
      "radius": 4.0,
      "age": 8.032000000000032,
      "lifetime": 15.0,
      "is_corpse": false
    },
    {
      "x": 1217.941989517244,
      "y": 634.4902621535044,
      "energy": 100,
      "radius": 4.0,
      "age": 8.032000000000032,
      "lifetime": 15.0,
      "is_corpse": false
    },
    {
      "x": 1485.3056876076967,
      "y": 692.3791566326481,
      "energy": 100,
      "radius": 4.0,
      "age": 7.835000000000032,
      "lifetime": 15.0,
      "is_corpse": false
    },
    {
      "x": 1542.8617199392652,
      "y": 695.9779097818521,
      "energy": 100,
      "radius": 4.0,
      "age": 7.835000000000032,
      "lifetime": 15.0,
      "is_corpse": false
    },
    {
      "x": 1502.528538717048,
      "y": 759.9001387286772,
      "energy": 100,
      "radius": 4.0,
      "age": 7.835000000000032,
      "lifetime": 15.0,
      "is_corpse": false
    },
    {
      "x": 1513.68313801571,
      "y": 706.9786078292535,
      "energy": 100,
      "radius": 4.0,
      "age": 7.835000000000032,
      "lifetime": 15.0,
      "is_corpse": false
    },
    {
      "x": 311.0103156500465,
      "y": 411.5614977606087,
      "energy": 100,
      "radius": 4.0,
      "age": 7.631000000000028,
      "lifetime": 15.0,
      "is_corpse": false
    },
    {
      "x": 341.98453400060976,
      "y": 496.48747443434735,
      "energy": 100,
      "radius": 4.0,
      "age": 7.631000000000028,
      "lifetime": 15.0,
      "is_corpse": false
    },
    {
      "x": 393.3306157521614,
      "y": 434.88169211017174,
      "energy": 100,
      "radius": 4.0,
      "age": 7.631000000000028,
      "lifetime": 15.0,
      "is_corpse": false
    },
    {
      "x": 330.60732384617376,
      "y": 433.45168689003896,
      "energy": 100,
      "radius": 4.0,
      "age": 7.631000000000028,
      "lifetime": 15.0,
      "is_corpse": false
    },
    {
      "x": 59.605952065337675,
      "y": 352.75516004133414,
      "energy": 100,
      "radius": 4.0,
      "age": 7.428000000000026,
      "lifetime": 15.0,
      "is_corpse": false
    },
    {
      "x": 37.5836242935249,
      "y": 277.9735012481992,
      "energy": 100,
      "radius": 4.0,
      "age": 7.428000000000026,
      "lifetime": 15.0,
      "is_corpse": false
    },
    {
      "x": 15.977809540076137,
      "y": 366.9720930013707,
      "energy": 100,
      "radius": 4.0,
      "age": 7.428000000000026,
      "lifetime": 15.0,
      "is_corpse": false
    },
    {
      "x": 42.8003148551918,
      "y": 344.5175628984699,
      "energy": 100,
      "radius": 4.0,
      "age": 7.428000000000026,
      "lifetime": 15.0,
      "is_corpse": false
    },
    {
      "x": 1743.8249819023813,
      "y": 100.88355519768604,
      "energy": 100,
      "radius": 4.0,
      "age": 7.240000000000026,
      "lifetime": 15.0,
      "is_corpse": false
    },
    {
      "x": 1782.162490412093,
      "y": 67.53747527383534,
      "energy": 100,
      "radius": 4.0,
      "age": 7.240000000000026,
      "lifetime": 15.0,
      "is_corpse": false
    },
    {
      "x": 1748.306336091195,
      "y": 76.7804894530546,
      "energy": 100,
      "radius": 4.0,
      "age": 7.240000000000026,
      "lifetime": 15.0,
      "is_corpse": false
    },
    {
      "x": 1779.2085912994523,
      "y": 120.61716795979008,
      "energy": 100,
      "radius": 4.0,
      "age": 7.240000000000026,
      "lifetime": 15.0,
      "is_corpse": false
    },
    {
      "x": 1438.4239906195558,
      "y": 384.4628689449175,
      "energy": 100,
      "radius": 4.0,
      "age": 7.036000000000024,
      "lifetime": 15.0,
      "is_corpse": false
    },
    {
      "x": 1497.0071070045785,
      "y": 457.613581250774,
      "energy": 100,
      "radius": 4.0,
      "age": 7.036000000000024,
      "lifetime": 15.0,
      "is_corpse": false
    },
    {
      "x": 1513.13300375005,
      "y": 407.8366301593329,
      "energy": 100,
      "radius": 4.0,
      "age": 7.036000000000024,
      "lifetime": 15.0,
      "is_corpse": false
    },
    {
      "x": 1492.6997685261663,
      "y": 389.43120623386216,
      "energy": 100,
      "radius": 4.0,
      "age": 7.036000000000024,
      "lifetime": 15.0,
      "is_corpse": false
    },
    {
      "x": 1126.561804547047,
      "y": 603.0724910954841,
      "energy": 100,
      "radius": 4.0,
      "age": 6.825000000000021,
      "lifetime": 15.0,
      "is_corpse": false
    },
    {
      "x": 1105.0129497880407,
      "y": 556.0194321249105,
      "energy": 100,
      "radius": 4.0,
      "age": 6.825000000000021,
      "lifetime": 15.0,
      "is_corpse": false
    },
    {
      "x": 1138.5332105516816,
      "y": 542.0604079167837,
      "energy": 100,
      "radius": 4.0,
      "age": 6.825000000000021,
      "lifetime": 15.0,
      "is_corpse": false
    },
    {
      "x": 1164.8731461862612,
      "y": 593.7325257220793,
      "energy": 100,
      "radius": 4.0,
      "age": 6.825000000000021,
      "lifetime": 15.0,
      "is_corpse": false
    },
    {
      "x": 544.8964070028674,
      "y": 579.9000930312009,
      "energy": 100,
      "radius": 4.0,
      "age": 6.6330000000000195,
      "lifetime": 15.0,
      "is_corpse": false
    },
    {
      "x": 516.6898904181744,
      "y": 519.5437270850613,
      "energy": 100,
      "radius": 4.0,
      "age": 6.6330000000000195,
      "lifetime": 15.0,
      "is_corpse": false
    },
    {
      "x": 514.6728796583753,
      "y": 584.0528611317769,
      "energy": 100,
      "radius": 4.0,
      "age": 6.6330000000000195,
      "lifetime": 15.0,
      "is_corpse": false
    },
    {
      "x": 487.61157421972086,
      "y": 568.659778225071,
      "energy": 100,
      "radius": 4.0,
      "age": 6.6330000000000195,
      "lifetime": 15.0,
      "is_corpse": false
    },
    {
      "x": 523.2802210117487,
      "y": 982.0497212968132,
      "energy": 100,
      "radius": 4.0,
      "age": 6.436000000000016,
      "lifetime": 15.0,
      "is_corpse": false
    },
    {
      "x": 497.37757842189956,
      "y": 994.4514594591651,
      "energy": 100,
      "radius": 4.0,
      "age": 6.436000000000016,
      "lifetime": 15.0,
      "is_corpse": false
    },
    {
      "x": 494.6612519442391,
      "y": 971.0487818166869,
      "energy": 100,
      "radius": 4.0,
      "age": 6.436000000000016,
      "lifetime": 15.0,
      "is_corpse": false
    },
    {
      "x": 566.0805458804538,
      "y": 1005.0,
      "energy": 100,
      "radius": 4.0,
      "age": 6.436000000000016,
      "lifetime": 15.0,
      "is_corpse": false
    },
    {
      "x": 1815.7628182582043,
      "y": 355.622573157439,
      "energy": 100,
      "radius": 4.0,
      "age": 6.238000000000014,
      "lifetime": 15.0,
      "is_corpse": false
    },
    {
      "x": 1877.9267698385186,
      "y": 422.2591274121321,
      "energy": 100,
      "radius": 4.0,
      "age": 6.238000000000014,
      "lifetime": 15.0,
      "is_corpse": false
    },
    {
      "x": 1848.3584817603783,
      "y": 422.0080324874111,
      "energy": 100,
      "radius": 4.0,
      "age": 6.238000000000014,
      "lifetime": 15.0,
      "is_corpse": false
    },
    {
      "x": 1779.5342887851498,
      "y": 471.17806112945254,
      "energy": 100,
      "radius": 4.0,
      "age": 6.238000000000014,
      "lifetime": 15.0,
      "is_corpse": false
    },
    {
      "x": 1019.9849673472527,
      "y": 757.1596026002111,
      "energy": 100,
      "radius": 4.0,
      "age": 6.034000000000011,
      "lifetime": 15.0,
      "is_corpse": false
    },
    {
      "x": 1051.04905064707,
      "y": 771.2857764619571,
      "energy": 100,
      "radius": 4.0,
      "age": 6.034000000000011,
      "lifetime": 15.0,
      "is_corpse": false
    },
    {
      "x": 1059.2692379124605,
      "y": 720.6584001957357,
      "energy": 100,
      "radius": 4.0,
      "age": 6.034000000000011,
      "lifetime": 15.0,
      "is_corpse": false
    },
    {
      "x": 1035.9834769123624,
      "y": 805.115339605367,
      "energy": 100,
      "radius": 4.0,
      "age": 6.034000000000011,
      "lifetime": 15.0,
      "is_corpse": false
    },
    {
      "x": 97.46161633722747,
      "y": 720.5489105468718,
      "energy": 100,
      "radius": 4.0,
      "age": 5.830000000000011,
      "lifetime": 15.0,
      "is_corpse": false
    },
    {
      "x": 48.12704559112491,
      "y": 690.3480925061689,
      "energy": 100,
      "radius": 4.0,
      "age": 5.830000000000011,
      "lifetime": 15.0,
      "is_corpse": false
    },
    {
      "x": 4.0,
      "y": 757.2667939466696,
      "energy": 100,
      "radius": 4.0,
      "age": 5.830000000000011,
      "lifetime": 15.0,
      "is_corpse": false
    },
    {
      "x": 16.459540690957166,
      "y": 756.7655196905827,
      "energy": 100,
      "radius": 4.0,
      "age": 5.830000000000011,
      "lifetime": 15.0,
      "is_corpse": false
    },
    {
      "x": 512.9833338858009,
      "y": 731.5911077230897,
      "energy": 100,
      "radius": 4.0,
      "age": 5.638000000000011,
      "lifetime": 15.0,
      "is_corpse": false
    },
    {
      "x": 463.9970732254796,
      "y": 768.6838784303488,
      "energy": 100,
      "radius": 4.0,
      "age": 5.638000000000011,
      "lifetime": 15.0,
      "is_corpse": false
    },
    {
      "x": 509.94443510278086,
      "y": 702.0867355575971,
      "energy": 100,
      "radius": 4.0,
      "age": 5.638000000000011,
      "lifetime": 15.0,
      "is_corpse": false
    },
    {
      "x": 521.5809385462152,
      "y": 755.5088604541847,
      "energy": 100,
      "radius": 4.0,
      "age": 5.638000000000011,
      "lifetime": 15.0,
      "is_corpse": false
    },
    {
      "x": 496.9579090739535,
      "y": 384.35879881082036,
      "energy": 100,
      "radius": 4.0,
      "age": 5.425000000000007,
      "lifetime": 15.0,
      "is_corpse": false
    },
    {
      "x": 511.7105196721295,
      "y": 388.08354910584103,
      "energy": 100,
      "radius": 4.0,
      "age": 5.425000000000007,
      "lifetime": 15.0,
      "is_corpse": false
    },
    {
      "x": 463.2891780868593,
      "y": 424.6642716956283,
      "energy": 100,
      "radius": 4.0,
      "age": 5.425000000000007,
      "lifetime": 15.0,
      "is_corpse": false
    },
    {
      "x": 499.83882566605774,
      "y": 429.94788147436697,
      "energy": 100,
      "radius": 4.0,
      "age": 5.425000000000007,
      "lifetime": 15.0,
      "is_corpse": false
    },
    {
      "x": 1916.0,
      "y": 341.43966688793876,
      "energy": 100,
      "radius": 4.0,
      "age": 5.228000000000005,
      "lifetime": 15.0,
      "is_corpse": false
    },
    {
      "x": 1864.622378218745,
      "y": 256.4733456128022,
      "energy": 100,
      "radius": 4.0,
      "age": 5.228000000000005,
      "lifetime": 15.0,
      "is_corpse": false
    },
    {
      "x": 1877.0965650720157,
      "y": 227.1506945366575,
      "energy": 100,
      "radius": 4.0,
      "age": 5.228000000000005,
      "lifetime": 15.0,
      "is_corpse": false
    },
    {
      "x": 1913.7918953576584,
      "y": 226.54663817458805,
      "energy": 100,
      "radius": 4.0,
      "age": 5.228000000000005,
      "lifetime": 15.0,
      "is_corpse": false
    },
    {
      "x": 1361.7363231672653,
      "y": 732.4235457669256,
      "energy": 100,
      "radius": 4.0,
      "age": 5.036000000000001,
      "lifetime": 15.0,
      "is_corpse": false
    },
    {
      "x": 1327.793096594234,
      "y": 693.0129785102026,
      "energy": 100,
      "radius": 4.0,
      "age": 5.036000000000001,
      "lifetime": 15.0,
      "is_corpse": false
    },
    {
      "x": 1318.4179590106974,
      "y": 728.9993723673788,
      "energy": 100,
      "radius": 4.0,
      "age": 5.036000000000001,
      "lifetime": 15.0,
      "is_corpse": false
    },
    {
      "x": 1333.031970130028,
      "y": 741.2022897305341,
      "energy": 100,
      "radius": 4.0,
      "age": 5.036000000000001,
      "lifetime": 15.0,
      "is_corpse": false
    },
    {
      "x": 557.2884306870207,
      "y": 988.6767719361103,
      "energy": 100,
      "radius": 4.0,
      "age": 4.866999999999999,
      "lifetime": 15.0,
      "is_corpse": false
    },
    {
      "x": 1778.0739625288013,
      "y": 628.9712007201493,
      "energy": 100,
      "radius": 4.0,
      "age": 4.832999999999999,
      "lifetime": 15.0,
      "is_corpse": false
    },
    {
      "x": 1848.592723522555,
      "y": 584.1689267071607,
      "energy": 100,
      "radius": 4.0,
      "age": 4.832999999999999,
      "lifetime": 15.0,
      "is_corpse": false
    },
    {
      "x": 1733.183642597443,
      "y": 610.1004000199212,
      "energy": 100,
      "radius": 4.0,
      "age": 4.832999999999999,
      "lifetime": 15.0,
      "is_corpse": false
    },
    {
      "x": 1755.6508926566398,
      "y": 557.4246915048941,
      "energy": 100,
      "radius": 4.0,
      "age": 4.832999999999999,
      "lifetime": 15.0,
      "is_corpse": false
    },
    {
      "x": 1467.9055537011075,
      "y": 1002.4560275586479,
      "energy": 100,
      "radius": 4.0,
      "age": 4.765,
      "lifetime": 15.0,
      "is_corpse": false
    },
    {
      "x": 1906.2348750642188,
      "y": 598.023148093019,
      "energy": 100,
      "radius": 4.0,
      "age": 4.765,
      "lifetime": 15.0,
      "is_corpse": false
    },
    {
      "x": 1618.433096483361,
      "y": 137.91673038569394,
      "energy": 100,
      "radius": 4.0,
      "age": 4.637,
      "lifetime": 15.0,
      "is_corpse": false
    },
    {
      "x": 1681.6532097655988,
      "y": 139.8939787581695,
      "energy": 100,
      "radius": 4.0,
      "age": 4.637,
      "lifetime": 15.0,
      "is_corpse": false
    },
    {
      "x": 1682.4245944598372,
      "y": 145.39469992698233,
      "energy": 100,
      "radius": 4.0,
      "age": 4.637,
      "lifetime": 15.0,
      "is_corpse": false
    },
    {
      "x": 1634.0616814821183,
      "y": 165.24703149416644,
      "energy": 100,
      "radius": 4.0,
      "age": 4.637,
      "lifetime": 15.0,
      "is_corpse": false
    },
    {
      "x": 413.1061524827905,
      "y": 262.05258134278307,
      "energy": 100,
      "radius": 4.0,
      "age": 4.434999999999998,
      "lifetime": 15.0,
      "is_corpse": false
    },
    {
      "x": 386.33944905239565,
      "y": 121.91231056596351,
      "energy": 100,
      "radius": 4.0,
      "age": 4.434999999999998,
      "lifetime": 15.0,
      "is_corpse": false
    },
    {
      "x": 398.058219982641,
      "y": 150.8733980493728,
      "energy": 100,
      "radius": 4.0,
      "age": 4.434999999999998,
      "lifetime": 15.0,
      "is_corpse": false
    },
    {
      "x": 393.983374559518,
      "y": 144.02682163761614,
      "energy": 100,
      "radius": 4.0,
      "age": 4.434999999999998,
      "lifetime": 15.0,
      "is_corpse": false
    },
    {
      "x": 1915.7712916748867,
      "y": 230.28445392059618,
      "energy": 100,
      "radius": 4.0,
      "age": 4.333999999999998,
      "lifetime": 15.0,
      "is_corpse": false
    },
    {
      "x": 1366.291517081251,
      "y": 800.0319396970181,
      "energy": 100,
      "radius": 4.0,
      "age": 4.237999999999998,
      "lifetime": 15.0,
      "is_corpse": false
    },
    {
      "x": 1473.8917004883335,
      "y": 800.0510512953625,
      "energy": 100,
      "radius": 4.0,
      "age": 4.237999999999998,
      "lifetime": 15.0,
      "is_corpse": false
    },
    {
      "x": 1450.9114683634841,
      "y": 810.469019445848,
      "energy": 100,
      "radius": 4.0,
      "age": 4.237999999999998,
      "lifetime": 15.0,
      "is_corpse": false
    },
    {
      "x": 1418.9820198053276,
      "y": 771.7318719768875,
      "energy": 100,
      "radius": 4.0,
      "age": 4.237999999999998,
      "lifetime": 15.0,
      "is_corpse": false
    },
    {
      "x": 1429.4529327667624,
      "y": 115.55242965336515,
      "energy": 100,
      "radius": 4.0,
      "age": 4.024999999999994,
      "lifetime": 15.0,
      "is_corpse": false
    },
    {
      "x": 1457.1906579779638,
      "y": 166.05681230518456,
      "energy": 100,
      "radius": 4.0,
      "age": 4.024999999999994,
      "lifetime": 15.0,
      "is_corpse": false
    },
    {
      "x": 1444.914973339325,
      "y": 188.1333386026681,
      "energy": 100,
      "radius": 4.0,
      "age": 4.024999999999994,
      "lifetime": 15.0,
      "is_corpse": false
    },
    {
      "x": 1443.4302973776996,
      "y": 156.59812302538302,
      "energy": 100,
      "radius": 4.0,
      "age": 4.024999999999994,
      "lifetime": 15.0,
      "is_corpse": false
    },
    {
      "x": 1388.311225444898,
      "y": 842.3635167406817,
      "energy": 100,
      "radius": 4.0,
      "age": 3.8309999999999955,
      "lifetime": 15.0,
      "is_corpse": false
    },
    {
      "x": 1403.9891360776344,
      "y": 754.8682178656054,
      "energy": 100,
      "radius": 4.0,
      "age": 3.8309999999999955,
      "lifetime": 15.0,
      "is_corpse": false
    },
    {
      "x": 1411.0371030780836,
      "y": 785.233196350755,
      "energy": 100,
      "radius": 4.0,
      "age": 3.8309999999999955,
      "lifetime": 15.0,
      "is_corpse": false
    },
    {
      "x": 1332.6790613118424,
      "y": 824.4585678848354,
      "energy": 100,
      "radius": 4.0,
      "age": 3.8309999999999955,
      "lifetime": 15.0,
      "is_corpse": false
    },
    {
      "x": 439.0077302020013,
      "y": 966.1931011588825,
      "energy": 100,
      "radius": 4.0,
      "age": 3.6319999999999952,
      "lifetime": 15.0,
      "is_corpse": false
    },
    {
      "x": 431.3368792750891,
      "y": 974.5989565685718,
      "energy": 100,
      "radius": 4.0,
      "age": 3.6319999999999952,
      "lifetime": 15.0,
      "is_corpse": false
    },
    {
      "x": 482.94238116173125,
      "y": 1005.0,
      "energy": 100,
      "radius": 4.0,
      "age": 3.6319999999999952,
      "lifetime": 15.0,
      "is_corpse": false
    },
    {
      "x": 461.11540151792724,
      "y": 963.8769593047076,
      "energy": 100,
      "radius": 4.0,
      "age": 3.6319999999999952,
      "lifetime": 15.0,
      "is_corpse": false
    },
    {
      "x": 622.5762668733064,
      "y": 925.2429835558788,
      "energy": 100,
      "radius": 4.0,
      "age": 3.433999999999996,
      "lifetime": 15.0,
      "is_corpse": false
    },
    {
      "x": 598.77515603538,
      "y": 979.2721045032633,
      "energy": 100,
      "radius": 4.0,
      "age": 3.433999999999996,
      "lifetime": 15.0,
      "is_corpse": false
    },
    {
      "x": 588.7718263639291,
      "y": 918.541713534853,
      "energy": 100,
      "radius": 4.0,
      "age": 3.433999999999996,
      "lifetime": 15.0,
      "is_corpse": false
    },
    {
      "x": 580.5968858129686,
      "y": 993.8891470975631,
      "energy": 100,
      "radius": 4.0,
      "age": 3.433999999999996,
      "lifetime": 15.0,
      "is_corpse": false
    },
    {
      "x": 543.5514440720452,
      "y": 674.8487721404771,
      "energy": 100,
      "radius": 4.0,
      "age": 3.2389999999999968,
      "lifetime": 15.0,
      "is_corpse": false
    },
    {
      "x": 520.2973204295878,
      "y": 724.8500191255907,
      "energy": 100,
      "radius": 4.0,
      "age": 3.2389999999999968,
      "lifetime": 15.0,
      "is_corpse": false
    },
    {
      "x": 578.4763956122392,
      "y": 705.5423210222394,
      "energy": 100,
      "radius": 4.0,
      "age": 3.2389999999999968,
      "lifetime": 15.0,
      "is_corpse": false
    },
    {
      "x": 585.5132224579348,
      "y": 750.1980440764374,
      "energy": 100,
      "radius": 4.0,
      "age": 3.2389999999999968,
      "lifetime": 15.0,
      "is_corpse": false
    },
    {
      "x": 1223.7591849826915,
      "y": 411.6637569589681,
      "energy": 100,
      "radius": 4.0,
      "age": 3.0399999999999974,
      "lifetime": 15.0,
      "is_corpse": false
    },
    {
      "x": 1281.6452115621437,
      "y": 431.2712405283917,
      "energy": 100,
      "radius": 4.0,
      "age": 3.0399999999999974,
      "lifetime": 15.0,
      "is_corpse": false
    },
    {
      "x": 1291.4504282527032,
      "y": 394.7089071449103,
      "energy": 100,
      "radius": 4.0,
      "age": 3.0399999999999974,
      "lifetime": 15.0,
      "is_corpse": false
    },
    {
      "x": 1307.1023950762021,
      "y": 460.5942110812104,
      "energy": 100,
      "radius": 4.0,
      "age": 3.0399999999999974,
      "lifetime": 15.0,
      "is_corpse": false
    },
    {
      "x": 103.70356356476617,
      "y": 619.2525750174024,
      "energy": 100,
      "radius": 4.0,
      "age": 2.8379999999999974,
      "lifetime": 15.0,
      "is_corpse": false
    },
    {
      "x": 125.97889773002566,
      "y": 559.0573013100736,
      "energy": 100,
      "radius": 4.0,
      "age": 2.8379999999999974,
      "lifetime": 15.0,
      "is_corpse": false
    },
    {
      "x": 99.35251424273045,
      "y": 648.2040376995989,
      "energy": 100,
      "radius": 4.0,
      "age": 2.8379999999999974,
      "lifetime": 15.0,
      "is_corpse": false
    },
    {
      "x": 90.92727922647138,
      "y": 627.8390141718892,
      "energy": 100,
      "radius": 4.0,
      "age": 2.8379999999999974,
      "lifetime": 15.0,
      "is_corpse": false
    },
    {
      "x": 130.75950735221187,
      "y": 543.6779450029917,
      "energy": 100,
      "radius": 4.0,
      "age": 2.7579999999999973,
      "lifetime": 15.0,
      "is_corpse": false
    },
    {
      "x": 1166.058535848413,
      "y": 533.5257404408673,
      "energy": 100,
      "radius": 4.0,
      "age": 2.6299999999999972,
      "lifetime": 15.0,
      "is_corpse": false
    },
    {
      "x": 1173.4985350455117,
      "y": 527.5143260581364,
      "energy": 100,
      "radius": 4.0,
      "age": 2.6299999999999972,
      "lifetime": 15.0,
      "is_corpse": false
    },
    {
      "x": 1215.8716017544195,
      "y": 461.135783116169,
      "energy": 100,
      "radius": 4.0,
      "age": 2.6299999999999972,
      "lifetime": 15.0,
      "is_corpse": false
    },
    {
      "x": 1176.8963501046753,
      "y": 492.7482124644326,
      "energy": 100,
      "radius": 4.0,
      "age": 2.6299999999999972,
      "lifetime": 15.0,
      "is_corpse": false
    },
    {
      "x": 328.38529696796826,
      "y": 549.8511762687579,
      "energy": 100,
      "radius": 4.0,
      "age": 2.427999999999998,
      "lifetime": 15.0,
      "is_corpse": false
    },
    {
      "x": 330.34234848244716,
      "y": 625.5362332270947,
      "energy": 100,
      "radius": 4.0,
      "age": 2.427999999999998,
      "lifetime": 15.0,
      "is_corpse": false
    },
    {
      "x": 331.9647041976333,
      "y": 543.9554565696795,
      "energy": 100,
      "radius": 4.0,
      "age": 2.427999999999998,
      "lifetime": 15.0,
      "is_corpse": false
    },
    {
      "x": 369.13530184470767,
      "y": 540.5745842495218,
      "energy": 100,
      "radius": 4.0,
      "age": 2.427999999999998,
      "lifetime": 15.0,
      "is_corpse": false
    },
    {
      "x": 977.3147615894075,
      "y": 847.614958792269,
      "energy": 100,
      "radius": 4.0,
      "age": 2.2309999999999985,
      "lifetime": 15.0,
      "is_corpse": false
    },
    {
      "x": 1053.2366755166856,
      "y": 802.6529111973524,
      "energy": 100,
      "radius": 4.0,
      "age": 2.2309999999999985,
      "lifetime": 15.0,
      "is_corpse": false
    },
    {
      "x": 1107.5607072667274,
      "y": 776.2005677353193,
      "energy": 100,
      "radius": 4.0,
      "age": 2.2309999999999985,
      "lifetime": 15.0,
      "is_corpse": false
    },
    {
      "x": 1062.6269653881402,
      "y": 799.673614846902,
      "energy": 100,
      "radius": 4.0,
      "age": 2.2309999999999985,
      "lifetime": 15.0,
      "is_corpse": false
    },
    {
      "x": 1156.4474822718444,
      "y": 84.07917437094403,
      "energy": 100,
      "radius": 4.0,
      "age": 2.0329999999999995,
      "lifetime": 15.0,
      "is_corpse": false
    },
    {
      "x": 1124.3441961005965,
      "y": 102.63137358762032,
      "energy": 100,
      "radius": 4.0,
      "age": 2.0329999999999995,
      "lifetime": 15.0,
      "is_corpse": false
    },
    {
      "x": 1115.9677118014356,
      "y": 97.99113511689174,
      "energy": 100,
      "radius": 4.0,
      "age": 2.0329999999999995,
      "lifetime": 15.0,
      "is_corpse": false
    },
    {
      "x": 1172.3672499235117,
      "y": 60.41447053175676,
      "energy": 100,
      "radius": 4.0,
      "age": 2.0329999999999995,
      "lifetime": 15.0,
      "is_corpse": false
    },
    {
      "x": 1277.3762098199356,
      "y": 392.3115970423859,
      "energy": 100,
      "radius": 4.0,
      "age": 1.8369999999999997,
      "lifetime": 15.0,
      "is_corpse": false
    },
    {
      "x": 1365.543129125161,
      "y": 365.62856287196644,
      "energy": 100,
      "radius": 4.0,
