{
  "species_name": "gen_5_top10",
  "generation": 5,
  "creatures": [
    {
      "weights": {
        "W1": [
          [
            -0.5006982407885285,
            -0.26957772684813275,
            -0.627802942909726,
            -0.26749487472611383,
            0.01815886636171805,
            -0.6124275137888938,
            0.8175433305784795,
            -0.7947379569631715
          ],
          [
            0.6549624406547002,
            -0.525242108263927,
            0.8624249559890166,
            -0.9362724841691958,
            -0.43623172937267474,
            -0.13806663077894749,
            0.007380149991439956,
            0.17493276826729892
          ],
          [
            0.9215363596123052,
            0.3348795601587263,
            0.03229399928531039,
            0.16999165264498464,
            0.4894716731088991,
            0.12383189700859981,
            0.7127537818755258,
            -0.7475150978143056
          ],
          [
            0.07359327768251522,
            0.6927018167864696,
            -0.10142435020986178,
            -0.06313094775344234,
            0.9813285015374312,
            -0.3211001942460955,
            -0.42859763255906747,
            0.14268613393102747
          ],
          [
            0.5812943337890608,
            -0.08090578585969872,
            -0.6955779165808813,
            0.1487068023001222,
            -0.10571416682036745,
            -0.7565467776531395,
            0.8021462945403274,
            -0.8144549990161112
          ],
          [
            -0.13497671545736628,
            0.15819990506354165,
            -0.32856252597030633,
            -0.08955394860364574,
            0.06642853694522675,
            0.3029307483508147,
            0.04679551515282656,
            0.7776290556028496
          ],
          [
            0.35502448287006294,
            -0.7173304615342501,
            -1.5755456202831888,
            -1.5910862863424067,
            0.17770318732702192,
            0.34345912009685015,
            0.49504523856687377,
            -0.53026153888284
          ]
        ],
        "b1": [
          -0.15452273498348332,
          -0.007464403352544608,
          0.0,
          0.0,
          -0.16335155612524938,
          0.0,
          -0.20724014888023923,
          -0.23510800625511716
        ],
        "W2": [
          [
            0.2016810069901459,
            0.024285027144304073
          ],
          [
            -0.30497615810738804,
            0.23211727599268964
          ],
          [
            0.07478515826184196,
            0.5859171308229634
          ],
          [
            -0.04268183127328298,
            -0.01848904909450482
          ],
          [
            -1.3931531014868699,
            -0.23226793950361202
          ],
          [
            -0.9009363007658047,
            0.5947813270936708
          ],
          [
            0.13719641374712538,
            -1.4739456722897297
          ],
          [
            -0.5702010135490259,
            0.3878531874220449
          ]
        ],
        "b2": [
          0.0,
          0.0
        ]
      },
      "speed": 11,
      "size": 39,
      "vision": 19,
      "efficiency": 15,
      "lifespan": 16
    },
    {
      "weights": {
        "W1": [
          [
            -0.24223382755152567,
            1.125550852915913,
            0.739929085382475,
            1.2180338864811073,
            -0.2620229388194299,
            0.04767509441440604,
            0.07913539561585937,
            0.521525050884246
          ],
          [
            0.11055871637241402,
            0.3960686327190636,
            -0.8116971118890772,
            -0.5055592120579722,
            -0.4186537530962251,
            1.281846879713148,
            -0.5673559974752908,
            0.47837988244817625
          ],
          [
            0.06775884128748252,
            -0.16430520905781784,
            0.2725616238401861,
            -0.15343515954244177,
            -0.744419577356341,
            -1.1939794487390247,
            0.8605219691359394,
            1.1828258480966145
          ],
          [
            0.5756965139376722,
            0.08956020552075343,
            -0.32136368272949506,
            -1.0173740790727,
            -0.14504115550469227,
            0.5867156804792426,
            0.054898081149366174,
            0.2174146569700975
          ],
          [
            -0.02892691868911418,
            0.2619330157347851,
            0.033120859323765454,
            0.35040198490755803,
            -0.13441110028377465,
            0.8701875465366338,
            -0.2502915891361256,
            -0.7454928155063323
          ],
          [
            0.1706614665120269,
            -0.5720807091040045,
            -0.1239135087371786,
            0.5058033080573898,
            -0.12164369197148475,
            -0.3129928598920284,
            -0.3530708658118061,
            -0.4093459519032543
          ],
          [
            1.1666944886975514,
            -0.1934577211853069,
            -0.5120727351689138,
            0.031252469305198594,
            0.356341531403698,
            -0.4274692760639522,
            0.1508049905785412,
            0.024046701121853503
          ]
        ],
        "b1": [
          0.0,
          0.0,
          0.0,
          0.0,
          0.0,
          0.0,
          0.1673186034293454,
          0.2616612240214127
        ],
        "W2": [
          [
            1.7501800281300863,
            0.19223657046524045
          ],
          [
            -0.5938641605814068,
            0.027492927408530224
          ],
          [
            -0.5175580592494962,
            0.015225352219931987
          ],
          [
            0.5126761057839739,
            -0.368447465541951
          ],
          [
            0.7251814059239592,
            0.9708751500286167
          ],
          [
            -0.19160521837250497,
            -0.5661096831116323
          ],
          [
            0.7838162861274307,
            -0.4266705979986176
          ],
          [
            -0.06415711701961285,
            -0.35826309609923734
          ]
        ],
        "b2": [
          0.0,
          0.2921493279095818
        ]
      },
      "speed": 30,
      "size": 45,
      "vision": 11,
      "efficiency": 13,
      "lifespan": 1
    },
    {
      "weights": {
        "W1": [
          [
            -0.24223382755152567,
            0.9261916314594211,
            0.739929085382475,
            1.2180338864811073,
            -0.2620229388194299,
            0.04767509441440604,
            0.07913539561585937,
            0.521525050884246
          ],
          [
            0.6862939312918763,
            0.3960686327190636,
            -0.8116971118890772,
            -0.5055592120579722,
            0.006548589502108196,
            1.3739767692983815,
            -0.5673559974752908,
            0.47837988244817625
          ],
          [
            0.06775884128748252,
            -0.16430520905781784,
            0.2725616238401861,
            -0.15343515954244177,
            -0.744419577356341,
            -1.1939794487390247,
            0.8605219691359394,
            1.2358589412953873
          ],
          [
            0.5756965139376722,
            0.08956020552075343,
            -0.08501492084980422,
            -1.0173740790727,
            -0.33526547622735264,
            0.5867156804792426,
            0.054898081149366174,
            -0.043343213343910905
          ],
          [
            -0.02892691868911418,
            0.2619330157347851,
            0.033120859323765454,
            0.35040198490755803,
            -0.13441110028377465,
            0.8701875465366338,
            -0.2502915891361256,
            -1.091349233836641
          ],
          [
            0.1706614665120269,
            -0.5720807091040045,
            -0.1239135087371786,
            0.5058033080573898,
            -0.12164369197148475,
            -0.3129928598920284,
            -0.3530708658118061,
            -0.4093459519032543
          ],
          [
            1.1666944886975514,
            -0.1934577211853069,
            -0.5120727351689138,
            0.031252469305198594,
            0.356341531403698,
            -0.4274692760639522,
            0.1508049905785412,
            0.024046701121853503
          ]
        ],
        "b1": [
          0.0,
          0.0,
          0.0,
          0.0,
          0.0,
          0.0,
          0.1673186034293454,
          0.2616612240214127
        ],
        "W2": [
          [
            1.0999168341274133,
            0.19223657046524045
          ],
          [
            -0.5938641605814068,
            0.027492927408530224
          ],
          [
            -0.5175580592494962,
            -0.296632101465277
          ],
          [
            0.5126761057839739,
            -0.368447465541951
          ],
          [
            0.5430942603518614,
            0.9708751500286167
          ],
          [
            -0.19160521837250497,
            -0.5661096831116323
          ],
          [
            0.7838162861274307,
            -0.4266705979986176
          ],
          [
            -0.06415711701961285,
            -0.35826309609923734
          ]
        ],
        "b2": [
          0.0,
          0.2921493279095818
        ]
      },
      "speed": 27,
      "size": 47,
      "vision": 8,
      "efficiency": 10,
      "lifespan": 8
    },
    {
      "weights": {
        "W1": [
          [
            -0.5006982407885285,
            -0.27985408419310487,
            -1.3270260472902349,
            -0.26749487472611383,
            0.009706380750877448,
            -0.8452983156870632,
            0.7984100354611436,
            -0.7947379569631715
          ],
          [
            0.6178676453361331,
            -0.5155927913734999,
            0.22532706858931417,
            -0.22421220121668056,
            -0.43623172937267474,
            -0.13806663077894749,
            -0.023580638611567003,
            -0.13099009689364344
          ],
          [
            0.9215363596123052,
            0.5892715970523867,
            0.03229399928531039,
            0.3890158676799483,
            0.3160435273831941,
            0.1147499256837141,
            0.7127537818755258,
            -0.906408469077277
          ],
          [
            0.7332950625945218,
            0.47234323353393337,
            -0.10142435020986178,
            -0.39360063994956646,
            1.1222311352197365,
            -0.3211001942460955,
            -0.44023683745660613,
            0.2474758715715375
          ],
          [
            0.5812943337890608,
            -0.08090578585969872,
            -0.49938052275968875,
            0.49823726910777477,
            -0.10571416682036745,
            -0.7565467776531395,
            0.8021462945403274,
            -0.5173887306178281
          ],
          [
            0.21031357791129596,
            0.31993585571779437,
            -0.35505168742545395,
            -0.08955394860364574,
            0.06642853694522675,
            0.18024543053239855,
            0.04679551515282656,
            0.478145109817537
          ],
          [
            0.20623971892615256,
            -0.9295364145574431,
            -1.492280280803606,
            -1.1741244734410925,
            0.17770318732702192,
            0.34345912009685015,
            1.2484936065909125,
            -0.53026153888284
          ]
        ],
        "b1": [
          0.17887770901358993,
          0.3427114445414805,
          0.3352994791596447,
          0.0,
          0.0,
          -0.183959968688916,
          0.0,
          0.0
        ],
        "W2": [
          [
            0.2016810069901459,
            0.024285027144304073
          ],
          [
            -0.30497615810738804,
            0.00021171229348303233
          ],
          [
            -0.09390634808647447,
            0.5859171308229634
          ],
          [
            -0.04268183127328298,
            -0.01848904909450482
          ],
          [
            -0.6870953922779006,
            -0.23226793950361202
          ],
          [
            -0.9281682593401481,
            0.5947813270936708
          ],
          [
            0.13719641374712538,
            -1.3279501276171974
          ],
          [
            -0.611187496572485,
            0.9373265047902399
          ]
        ],
        "b2": [
          0.0,
          0.0
        ]
      },
      "speed": 18,
      "size": 38,
      "vision": 14,
      "efficiency": 15,
      "lifespan": 15
    },
    {
      "weights": {
        "W1": [
          [
            -0.5006982407885285,
            -0.26957772684813275,
            -0.627802942909726,
            -0.26749487472611383,
            0.01815886636171805,
            -0.6124275137888938,
            0.8656931319145661,
            -0.7947379569631715
          ],
          [
            0.6549624406547002,
            -0.525242108263927,
            0.8624249559890166,
            0.11143988605531147,
            -0.43623172937267474,
            -0.13806663077894749,
            0.007380149991439956,
            0.17493276826729892
          ],
          [
            0.9215363596123052,
            0.3348795601587263,
            0.03229399928531039,
            0.08886776527561172,
            0.4894716731088991,
            0.12383189700859981,
            0.7127537818755258,
            -0.7475150978143056
          ],
          [
            0.07359327768251522,
            0.6927018167864696,
            -0.10142435020986178,
            -0.06313094775344234,
            0.9813285015374312,
            -0.3211001942460955,
            -0.5773015795466998,
            0.14268613393102747
          ],
          [
            0.5812943337890608,
            -0.08090578585969872,
            -0.6955779165808813,
            0.1487068023001222,
            -0.10571416682036745,
            -0.7565467776531395,
            0.8021462945403274,
            -0.8144549990161112
          ],
          [
            -0.31544134531860835,
            -0.26686584087189985,
            -0.32856252597030633,
            -0.08955394860364574,
            0.06642853694522675,
            0.3029307483508147,
            0.04679551515282656,
            0.7776290556028496
          ],
          [
            0.35502448287006294,
            -0.7173304615342501,
            -1.5755456202831888,
            -1.5910862863424067,
            0.17770318732702192,
            0.34345912009685015,
            0.49504523856687377,
            -0.53026153888284
          ]
        ],
        "b1": [
          -0.15452273498348332,
          -0.007464403352544608,
          0.0,
          0.0,
          0.0,
          0.0,
          -0.11720322041350299,
          0.0
        ],
        "W2": [
          [
            0.2016810069901459,
            0.024285027144304073
          ],
          [
            -0.30497615810738804,
            0.23211727599268964
          ],
          [
            0.3816824278189051,
            0.5859171308229634
          ],
          [
            -0.04268183127328298,
            -0.01848904909450482
          ],
          [
            -1.3931531014868699,
            -0.23226793950361202
          ],
          [
            -0.9009363007658047,
            0.5947813270936708
          ],
          [
            0.13719641374712538,
            -1.4739456722897297
          ],
          [
            -0.5702010135490259,
            0.3878531874220449
          ]
        ],
        "b2": [
          0.0,
          0.0
        ]
      },
      "speed": 5,
      "size": 32,
      "vision": 21,
      "efficiency": 22,
      "lifespan": 20
    },
    {
      "weights": {
        "W1": [
          [
            -0.5006982407885285,
            -0.4104651594369137,
            -0.627802942909726,
            -0.26749487472611383,
            0.01815886636171805,
            -0.4331541515135163,
            0.9312516459264844,
            -0.7947379569631715
          ],
          [
            0.519698119860675,
            -0.3698876578181447,
            0.596904928224064,
            -0.22421220121668056,
            -0.43623172937267474,
            -0.13806663077894749,
            0.07490294739343197,
            -0.13099009689364344
          ],
          [
            0.7998974200186489,
            0.21831406772975168,
            0.03144916885144974,
            0.6405299549782324,
            0.4894716731088991,
            -0.3364841547582783,
            0.7127537818755258,
            -0.5634643614432381
          ],
          [
            0.7520330393467808,
            0.15966576565021318,
            -0.10142435020986178,
            -0.06313094775344234,
            0.9813285015374312,
            -0.3211001942460955,
            -0.5773015795466998,
            0.14268613393102747
          ],
          [
            0.5812943337890608,
            -0.08090578585969872,
            -0.7857741523120956,
            0.04425131435426889,
            -0.40516300233538477,
            -0.7565467776531395,
            0.8021462945403274,
            -0.5173887306178281
          ],
          [
            0.21031357791129596,
            -0.1240073382571924,
            -0.32856252597030633,
            -0.08955394860364574,
            0.06642853694522675,
            0.3029307483508147,
            0.04679551515282656,
            1.0805079671639435
          ],
          [
            0.20623971892615256,
            -1.0354354337692488,
            -1.627141363467666,
            -1.5910862863424067,
            0.17770318732702192,
            0.34345912009685015,
            0.6163740542238758,
            -0.53026153888284
          ]
        ],
        "b1": [
          0.17511499040331344,
          0.0,
          0.0,
          0.0,
          0.0,
          0.2579136319719884,
          0.0,
          0.0
        ],
        "W2": [
          [
            0.2016810069901459,
            0.11230848274454956
          ],
          [
            -0.30497615810738804,
            0.23211727599268964
          ],
          [
            0.3816824278189051,
            0.5859171308229634
          ],
          [
            -0.04268183127328298,
            -0.01848904909450482
          ],
          [
            -1.3931531014868699,
            -0.23226793950361202
          ],
          [
            -0.9281682593401481,
            0.5947813270936708
          ],
          [
            0.13719641374712538,
            -1.353394689234546
          ],
          [
            -0.5702010135490259,
            0.3878531874220449
          ]
        ],
        "b2": [
          -0.3883369031576866,
          0.0
        ]
      },
      "speed": 10,
      "size": 36,
      "vision": 25,
      "efficiency": 18,
      "lifespan": 11
    },
    {
      "weights": {
        "W1": [
          [
            -0.5006982407885285,
            -0.4104651594369137,
            -0.627802942909726,
            -0.26749487472611383,
            0.01815886636171805,
            -0.4331541515135163,
            0.9312516459264844,
            -0.7947379569631715
          ],
          [
            0.6549624406547002,
            -0.5155927913734999,
            0.596904928224064,
            -0.22421220121668056,
            -0.43623172937267474,
            -0.13806663077894749,
            0.007380149991439956,
            -0.11007964935804843
          ],
          [
            0.9215363596123052,
            0.21831406772975168,
            0.03144916885144974,
            0.6493017362188078,
            0.4894716731088991,
            0.1147499256837141,
            0.7127537818755258,
            -0.7475150978143056
          ],
          [
            0.7520330393467808,
            0.15966576565021318,
            -0.06817011151943389,
            -0.06313094775344234,
            0.9813285015374312,
            -0.3211001942460955,
            -0.5773015795466998,
            0.14268613393102747
          ],
          [
            0.5812943337890608,
            -0.08090578585969872,
            -0.819312132224736,
            0.45097714177081655,
            -0.10571416682036745,
            -0.840034031947941,
            0.8021462945403274,
            -0.5173887306178281
          ],
          [
            0.21031357791129596,
            0.15819990506354165,
            -0.32856252597030633,
            -0.08955394860364574,
            -0.34391273508726256,
            0.3029307483508147,
            0.04679551515282656,
            1.0805079671639435
          ],
          [
            0.20623971892615256,
            -0.9835037010809389,
            -1.627141363467666,
            -1.5910862863424067,
            0.1981963074486771,
            0.34345912009685015,
            0.6163740542238758,
            -0.53026153888284
          ]
        ],
        "b1": [
          0.17511499040331344,
          0.0,
          0.0,
          0.0,
          0.0,
          0.0,
          0.0,
          0.0
        ],
        "W2": [
          [
            0.2016810069901459,
            0.11230848274454956
          ],
          [
            -0.30497615810738804,
            0.23211727599268964
          ],
          [
            0.3816824278189051,
            0.5859171308229634
          ],
          [
            -0.4228396361153214,
            -0.01848904909450482
          ],
          [
            -1.7990463652832518,
            -0.23226793950361202
          ],
          [
            -0.9281682593401481,
            0.5947813270936708
          ],
          [
            0.13719641374712538,
            -1.3431617102519264
          ],
          [
            -0.5702010135490259,
            0.3878531874220449
          ]
        ],
        "b2": [
          0.0,
          0.0
        ]
      },
      "speed": 13,
      "size": 42,
      "vision": 20,
      "efficiency": 18,
      "lifespan": 7
    },
    {
      "weights": {
        "W1": [
          [
            -0.5006982407885285,
            -0.4104651594369137,
            -0.627802942909726,
            -0.26749487472611383,
            0.01815886636171805,
            -0.4331541515135163,
            0.9312516459264844,
            -0.7947379569631715
          ],
          [
            0.7253694316092748,
            -0.5155927913734999,
            0.596904928224064,
            -0.22421220121668056,
            -0.43623172937267474,
            -0.13806663077894749,
            0.007380149991439956,
            -0.11007964935804843
          ],
          [
            0.9215363596123052,
            0.21831406772975168,
            0.03144916885144974,
            0.3765992016060923,
            0.4894716731088991,
            0.1147499256837141,
            0.7127537818755258,
            -0.7475150978143056
          ],
          [
            0.7520330393467808,
            0.15966576565021318,
            -0.28929167292719893,
            0.3346567334357212,
            0.9813285015374312,
            -0.3211001942460955,
            -0.5773015795466998,
            0.14268613393102747
          ],
          [
            0.5812943337890608,
            -0.09077798768043517,
            -0.49938052275968875,
            0.45097714177081655,
            -0.10571416682036745,
            -0.840034031947941,
            0.8021462945403274,
            -0.5173887306178281
          ],
          [
            0.21031357791129596,
            0.15819990506354165,
            -0.4846461671076159,
            -0.08955394860364574,
            0.06642853694522675,
            0.3029307483508147,
            0.04679551515282656,
            1.0805079671639435
          ],
          [
            0.20623971892615256,
            -0.9835037010809389,
            -2.002315788949456,
            -1.5910862863424067,
            0.1981963074486771,
            0.34345912009685015,
            0.6163740542238758,
            -0.53026153888284
          ]
        ],
        "b1": [
          0.17511499040331344,
          0.0,
          0.0,
          0.0,
          0.0,
          0.0,
          0.0,
          0.0
        ],
        "W2": [
          [
            0.2877677652136733,
            0.11230848274454956
          ],
          [
            -0.30497615810738804,
            0.23211727599268964
          ],
          [
            0.3816824278189051,
            0.5859171308229634
          ],
          [
            -0.04268183127328298,
            -0.01848904909450482
          ],
          [
            -1.7990463652832518,
            -0.23226793950361202
          ],
          [
            -0.9281682593401481,
            0.5947813270936708
          ],
          [
            0.13719641374712538,
            -1.3431617102519264
          ],
          [
            -0.3447856051916822,
            0.3878531874220449
          ]
        ],
        "b2": [
          0.0,
          0.0
        ]
      },
      "speed": 12,
      "size": 40,
      "vision": 19,
      "efficiency": 12,
      "lifespan": 17
    },
    {
      "weights": {
        "W1": [
          [
            -0.5006982407885285,
            -0.4104651594369137,
            -0.627802942909726,
            -0.26749487472611383,
            0.01815886636171805,
            -0.4331541515135163,
            0.9312516459264844,
            -0.7947379569631715
          ],
          [
            0.6549624406547002,
            -0.3698876578181447,
            0.596904928224064,
            -0.22421220121668056,
            -0.43623172937267474,
            -0.13806663077894749,
            0.007380149991439956,
            0.5236568789665876
          ],
          [
            0.7998974200186489,
            0.21831406772975168,
            0.03144916885144974,
            0.6203133846253692,
            0.4894716731088991,
            -0.3364841547582783,
            0.7127537818755258,
            -0.7475150978143056
          ],
          [
            0.7520330393467808,
            0.15966576565021318,
            -0.10142435020986178,
            -0.06313094775344234,
            0.9813285015374312,
            -0.3211001942460955,
            -0.5773015795466998,
            0.13489608527212657
          ],
          [
            0.5812943337890608,
            -0.08090578585969872,
            -0.7857741523120956,
            0.04425131435426889,
            -0.10571416682036745,
            -0.7565467776531395,
            0.8021462945403274,
            -0.5173887306178281
          ],
          [
            0.14824068161820486,
            -0.1240073382571924,
            -0.32856252597030633,
            -0.08955394860364574,
            0.06642853694522675,
            0.3029307483508147,
            0.04679551515282656,
            1.0805079671639435
          ],
          [
            0.20623971892615256,
            -0.9835037010809389,
            -1.566192862773944,
            -1.5910862863424067,
            0.17770318732702192,
            0.34345912009685015,
            0.6163740542238758,
            -0.53026153888284
          ]
        ],
        "b1": [
          0.4305397519143278,
          0.0,
          0.0,
          0.0,
          0.0,
          0.2579136319719884,
          0.0,
          0.0
        ],
        "W2": [
          [
            0.2016810069901459,
            0.36082569852799246
          ],
          [
            -0.30497615810738804,
            0.23211727599268964
          ],
          [
            0.3816824278189051,
            0.5859171308229634
          ],
          [
            0.5297318543490878,
            -0.01848904909450482
          ],
          [
            -1.3931531014868699,
            -0.23226793950361202
          ],
          [
            -0.9281682593401481,
            0.5130037625167441
          ],
          [
            0.13719641374712538,
            -1.0086380177489758
          ],
          [
            -0.5702010135490259,
            0.9419705142917336
          ]
        ],
        "b2": [
          -0.3883369031576866,
          0.0
        ]
      },
      "speed": 10,
      "size": 40,
      "vision": 23,
      "efficiency": 17,
      "lifespan": 10
    },
    {
      "weights": {
        "W1": [
          [
            -0.5006982407885285,
            -0.26957772684813275,
            -0.09729531956343374,
            -0.26749487472611383,
            0.01815886636171805,
            -0.6124275137888938,
            0.8175433305784795,
            -0.7947379569631715
          ],
          [
            0.6549624406547002,
            -0.525242108263927,
            0.8624249559890166,
            -0.22421220121668056,
            -0.43623172937267474,
            -0.13806663077894749,
            0.007380149991439956,
            0.17493276826729892
          ],
          [
            0.9215363596123052,
            0.3348795601587263,
            0.32943005758661525,
            0.16999165264498464,
            0.4894716731088991,
            0.12383189700859981,
            0.7127537818755258,
            -0.7475150978143056
          ],
          [
            0.07359327768251522,
            0.6927018167864696,
            -0.10142435020986178,
            -0.09521437202035801,
            0.9813285015374312,
            -0.3211001942460955,
            -0.5773015795466998,
            0.14268613393102747
          ],
          [
            0.5812943337890608,
            -0.08090578585969872,
            -0.6955779165808813,
            -0.24404896269931067,
            -0.10571416682036745,
            -0.7565467776531395,
            0.8021462945403274,
            -0.8144549990161112
          ],
          [
            -0.13497671545736628,
            0.15819990506354165,
            -0.32856252597030633,
            -0.3390193452956346,
            0.06642853694522675,
            0.3029307483508147,
            0.04679551515282656,
            0.7776290556028496
          ],
          [
            0.35502448287006294,
            -0.7173304615342501,
            -1.5755456202831888,
            -1.5910862863424067,
            0.17770318732702192,
            0.34345912009685015,
            0.49504523856687377,
            -0.53026153888284
          ]
        ],
        "b1": [
          0.2933118664177595,
          -0.007464403352544608,
          0.0,
          0.19883234016575543,
          0.0,
          0.0,
          0.07670365210266727,
          0.0
        ],
        "W2": [
          [
            0.2016810069901459,
            0.024285027144304073
          ],
          [
            -0.30497615810738804,
            0.23211727599268964
          ],
          [
            0.4437940318256346,
            0.5859171308229634
          ],
          [
            -0.04268183127328298,
            -0.01848904909450482
          ],
          [
            -1.3931531014868699,
            -0.23226793950361202
          ],
          [
            -0.9009363007658047,
            0.5947813270936708
          ],
          [
            0.13719641374712538,
            -1.4739456722897297
          ],
          [
            -0.5702010135490259,
            0.3878531874220449
          ]
        ],
        "b2": [
          0.0,
          0.0
        ]
      },
      "speed": 12,
      "size": 35,
      "vision": 19,
      "efficiency": 20,
      "lifespan": 14
    }
  ]
}