{
  "species_name": "gen_2_top10",
  "generation": 2,
  "creatures": [
    {
      "weights": {
        "W1": [
          [
            0.6396264340586032,
            0.07583318019983132,
            -0.906483707528728,
            0.6822961069209978,
            -0.19595337369725338,
            0.569518951949859,
            -0.20065618394271062,
            0.7523858538122854
          ],
          [
            0.4658587923743935,
            0.10013533000154375,
            -0.7925627891330294,
            0.01835662785195956,
            0.14285715077889805,
            0.5611762113005345,
            -0.21146919265247102,
            -0.9466957537751215
          ],
          [
            -0.3237799620416453,
            -0.003928669994581734,
            0.1250890157756439,
            -0.24590632986370162,
            -0.2703245366847024,
            -0.6241304723140693,
            -0.1120507876683121,
            0.1450477060253248
          ],
          [
            0.7363463436330886,
            -0.26575340090642785,
            0.38216570176912756,
            0.6879655490211493,
            -0.3589402878033248,
            -1.2508220788886375,
            -0.3372942422948135,
            -0.41573092489512853
          ],
          [
            -0.3175471820061145,
            0.6740001873029211,
            0.1700727669456532,
            0.721212689321856,
            0.26362649354220213,
            0.15662373932078266,
            0.5301781887556521,
            -0.45360750587592485
          ],
          [
            -0.4674330484628197,
            -0.08184787942299097,
            0.1580596266001275,
            -0.24621031089699577,
            0.09015756886848489,
            0.3033329617857304,
            0.5417128800623586,
            -0.7031488776767345
          ],
          [
            0.3640285059018997,
            -0.5947601017782171,
            0.32931707473818184,
            -0.3478410817051955,
            -0.33929291130037553,
            -0.31976550237678125,
            0.18579244157281385,
            0.3671137106883397
          ]
        ],
        "b1": [
          0.0,
          0.0,
          0.0,
          0.0,
          0.0,
          0.0,
          0.0,
          0.0
        ],
        "W2": [
          [
            0.2818540593780537,
            -1.0391033452913758
          ],
          [
            0.2101694246459608,
            0.1429000064862647
          ],
          [
            0.5234086332136126,
            -0.003074281388030294
          ],
          [
            -0.0413926117769794,
            -0.01186772963011242
          ],
          [
            -0.18026621971228093,
            0.5416650550563316
          ],
          [
            0.5328020410244223,
            -0.05465509344133815
          ],
          [
            -0.7359794586795764,
            0.3036565929357291
          ],
          [
            -0.32691760390145874,
            0.09690823031999277
          ]
        ],
        "b2": [
          0.0,
          0.0
        ]
      },
      "speed": 44,
      "size": 6,
      "vision": 31,
      "efficiency": 7,
      "lifespan": 12
    },
    {
      "weights": {
        "W1": [
          [
            0.25250973109190095,
            -0.46421971387438304,
            -0.8419232716261016,
            0.9943319923892906,
            0.1445170454473956,
            0.4742122453945518,
            0.9423231729859034,
            0.4506515201810212
          ],
          [
            0.21780984936363534,
            -0.35975429789222746,
            -0.4921633008873116,
            -0.36415589924221375,
            0.3502702897332408,
            0.5845668949378234,
            0.675570677159655,
            -0.5926014622543061
          ],
          [
            -0.3450405992534316,
            0.039732037213178126,
            -0.11032706865210186,
            0.40638724153886474,
            0.957362799432414,
            0.7777413750741955,
            -0.0958676620027395,
            -0.3171561833553442
          ],
          [
            0.1228240739505558,
            0.06985520809094622,
            -0.32862517408345665,
            -0.3841161863676817,
            0.09199149429800284,
            0.5395843742051148,
            -0.24933128902288026,
            0.2747342613962633
          ],
          [
            0.2215561678906201,
            0.40024026179248495,
            0.36261956243999716,
            -0.10809151934423823,
            0.25833118837696895,
            -0.6424594175672531,
            -0.045333318473449645,
            0.7398209265739581
          ],
          [
            0.41932406315757287,
            0.7213892453544541,
            0.35165466272208973,
            0.8282629205854035,
            0.29283560789379487,
            -0.2602526770341949,
            0.038605635244586066,
            -0.7099300042791312
          ],
          [
            -0.2496160946044556,
            0.043832973124170616,
            0.19744425473289934,
            -0.13595615971166472,
            0.407469880723994,
            0.17795075804869492,
            0.410095960205464,
            -0.58541240908981
          ]
        ],
        "b1": [
          0.0,
          0.0,
          0.0,
          -0.12121866616687602,
          0.21801478040692643,
          0.0,
          0.0,
          0.0
        ],
        "W2": [
          [
            0.061387772919003054,
            -0.6761813945673354
          ],
          [
            1.2305714975188817,
            0.5841800325268098
          ],
          [
            0.17344659784304306,
            0.22169671939512223
          ],
          [
            0.3899718403913372,
            0.258727480944554
          ],
          [
            -0.01961523633398413,
            -0.10470750354092892
          ],
          [
            1.366021340177084,
            -0.6873124291891737
          ],
          [
            0.7663096254553211,
            -0.2231322634235378
          ],
          [
            0.11292808537927586,
            0.37351974422751766
          ]
        ],
        "b2": [
          0.0,
          0.0
        ]
      },
      "speed": 8,
      "size": 57,
      "vision": 3,
      "efficiency": 4,
      "lifespan": 28
    },
    {
      "weights": {
        "W1": [
          [
            0.6396264340586032,
            0.4879056698810102,
            -0.906483707528728,
            0.6822961069209978,
            -0.19595337369725338,
            0.569518951949859,
            -0.20065618394271062,
            0.7523858538122854
          ],
          [
            0.48560534771717145,
            0.10013533000154375,
            -0.16832559912498607,
            0.01835662785195956,
            0.6499394754633568,
            0.5611762113005345,
            -0.21146919265247102,
            -0.9466957537751215
          ],
          [
            -0.3237799620416453,
            -0.003928669994581734,
            0.1250890157756439,
            -0.24590632986370162,
            -0.2703245366847024,
            -0.6241304723140693,
            -0.1120507876683121,
            0.04001122459723286
          ],
          [
            0.7363463436330886,
            -0.26575340090642785,
            0.4889694884303297,
            0.6879655490211493,
            -0.3589402878033248,
            -1.2508220788886375,
            -0.3372942422948135,
            -0.41573092489512853
          ],
          [
            -0.3175471820061145,
            0.6740001873029211,
            0.1700727669456532,
            0.721212689321856,
            0.26362649354220213,
            0.15662373932078266,
            -0.09288617828234554,
            -0.45360750587592485
          ],
          [
            -0.5420719542252693,
            -0.08184787942299097,
            0.1580596266001275,
            -0.24621031089699577,
            0.09015756886848489,
            0.7214544630259532,
            0.5417128800623586,
            -0.7031488776767345
          ],
          [
            0.3640285059018997,
            -0.3198440926178006,
            0.32931707473818184,
            -0.3478410817051955,
            -0.4251061323996899,
            -0.24144979052938464,
            0.18579244157281385,
            0.3671137106883397
          ]
        ],
        "b1": [
          0.0,
          0.0,
          0.0,
          0.0,
          0.0,
          0.0,
          0.0,
          0.0
        ],
        "W2": [
          [
            0.2818540593780537,
            -0.8082886616213514
          ],
          [
            0.1973258811285744,
            -0.10242706779818922
          ],
          [
            0.5234086332136126,
            -0.003074281388030294
          ],
          [
            -0.0413926117769794,
            -0.01186772963011242
          ],
          [
            -0.18026621971228093,
            0.5416650550563316
          ],
          [
            0.5328020410244223,
            0.1878119059039418
          ],
          [
            -0.7359794586795764,
            0.3036565929357291
          ],
          [
            -0.32691760390145874,
            -0.12784853438866006
          ]
        ],
        "b2": [
          0.0,
          0.44395351079645257
        ]
      },
      "speed": 49,
      "size": 1,
      "vision": 34,
      "efficiency": 12,
      "lifespan": 4
    },
    {
      "weights": {
        "W1": [
          [
            0.49912052053562167,
            -0.16506882921293306,
            0.0923046102565326,
            0.05832685995938752,
            -1.0746173327381376,
            -0.3669703835981858,
            -0.042245371802776786,
            -0.7444255864874776
          ],
          [
            0.0015859945845421069,
            0.07171000822887198,
            -0.029123784173776583,
            0.7476778656072376,
            0.15175950925688328,
            0.10793482028449297,
            -0.21641415502573616,
            0.4604588555996169
          ],
          [
            -0.1899599367450201,
            -0.6648248372131078,
            1.5260958869546057,
            0.8017283061755506,
            -0.2264129501695492,
            -0.5321687725690842,
            -0.2052529530737181,
            0.4149453414702223
          ],
          [
            -0.47558027485820914,
            0.38092154393744854,
            -0.5153170720403998,
            0.5650097980360342,
            -0.015357255074508469,
            0.044762593373383876,
            -0.04015022507280894,
            0.1620259516417436
          ],
          [
            -1.400771548200077,
            -0.09794504716054457,
            -0.6554899396906082,
            0.0918446895227599,
            -0.24540103078572817,
            -0.3413127461520043,
            0.5764228375527077,
            -0.5643429369925982
          ],
          [
            0.5600686504068795,
            0.7208875186213817,
            0.5573986027344047,
            -0.7097307492134505,
            -0.6621114240380609,
            0.28607954347393094,
            -0.19053111370214987,
            0.14007412075550654
          ],
          [
            0.26492147507595787,
            0.8378365884963458,
            0.24905532992704696,
            -1.0054244697964547,
            -0.3323097183121082,
            -0.4113900606823737,
            -0.5564681549106458,
            -0.10319951772292524
          ]
        ],
        "b1": [
          0.0,
          0.0,
          0.0,
          0.0,
          0.0,
          0.0,
          0.0,
          0.32585439227117236
        ],
        "W2": [
          [
            -0.04312877530066786,
            0.08253666801208703
          ],
          [
            0.24744599209360965,
            0.7644782250210089
          ],
          [
            0.5933398830784251,
            0.07092182376548577
          ],
          [
            0.1415968381044104,
            0.3774235862037704
          ],
          [
            -0.0865638534919668,
            0.14056589810638087
          ],
          [
            0.38659944492945103,
            0.549830283105785
          ],
          [
            0.14217895850883483,
            -0.4227794407897655
          ],
          [
            -0.17479546113470146,
            -0.1854838317479952
          ]
        ],
        "b2": [
          0.22331142189913786,
          0.0
        ]
      },
      "speed": 12,
      "size": 12,
      "vision": 1,
      "efficiency": 54,
      "lifespan": 21
    },
    {
      "weights": {
        "W1": [
          [
            0.49912052053562167,
            -0.16506882921293306,
            0.0923046102565326,
            0.017660673243999933,
            -1.0746173327381376,
            -0.3669703835981858,
            -0.042245371802776786,
            -0.7444255864874776
          ],
          [
            0.0015859945845421069,
            0.07171000822887198,
            -0.029123784173776583,
            0.7476778656072376,
            0.15175950925688328,
            0.10793482028449297,
            -0.21641415502573616,
            0.4604588555996169
          ],
          [
            -0.1899599367450201,
            -0.6648248372131078,
            1.5260958869546057,
            0.8017283061755506,
            -0.2264129501695492,
            -0.5321687725690842,
            -0.2052529530737181,
            0.4149453414702223
          ],
          [
            -0.47558027485820914,
            0.38092154393744854,
            -0.5153170720403998,
            0.5650097980360342,
            -0.015357255074508469,
            0.044762593373383876,
            -0.04015022507280894,
            0.1620259516417436
          ],
          [
            -1.3545412564048078,
            -0.09794504716054457,
            -0.6554899396906082,
            0.0918446895227599,
            -0.24540103078572817,
            -0.3413127461520043,
            0.5764228375527077,
            -0.5643429369925982
          ],
          [
            0.33833814709391447,
            0.7208875186213817,
            0.5573986027344047,
            -0.7097307492134505,
            -0.6621114240380609,
            0.28607954347393094,
            -0.19053111370214987,
            0.14007412075550654
          ],
          [
            0.26492147507595787,
            0.8378365884963458,
            0.24905532992704696,
            -0.5309141185485213,
            -0.3323097183121082,
            -0.4113900606823737,
            -0.5564681549106458,
            -0.10319951772292524
          ]
        ],
        "b1": [
          0.0,
          0.0,
          0.0,
          0.0,
          0.0,
          0.0,
          0.0,
          0.0
        ],
        "W2": [
          [
            -0.04312877530066786,
            0.08253666801208703
          ],
          [
            0.24744599209360965,
            0.7644782250210089
          ],
          [
            0.5670724964569136,
            0.07092182376548577
          ],
          [
            0.1415968381044104,
            0.3774235862037704
          ],
          [
            -0.0865638534919668,
            0.40625015619795507
          ],
          [
            0.38659944492945103,
            0.1879703929223669
          ],
          [
            0.14217895850883483,
            -0.4227794407897655
          ],
          [
            -0.17479546113470146,
            -0.1854838317479952
          ]
        ],
        "b2": [
          0.0,
          0.0
        ]
      },
      "speed": 12,
      "size": 9,
      "vision": 2,
      "efficiency": 59,
      "lifespan": 18
    },
    {
      "weights": {
        "W1": [
          [
            0.3638379213009531,
            -0.3260467824375932,
            0.20443639607854416,
            -1.4805015903814043,
            -0.44656682697016165,
            0.8541785666533964,
            -0.31797480471490563,
            -0.6097274141185661
          ],
          [
            0.5054666171073428,
            -0.15053967921388098,
            -0.44494171456857246,
            -0.9714265617887872,
            0.24093427064095166,
            -0.8564323130267666,
            0.4546242475137318,
            0.5712353642001954
          ],
          [
            1.1440566917029376,
            -0.8541133506204855,
            0.3712008038642286,
            0.5706035211692999,
            0.2393482146954452,
            0.06337818571382303,
            -0.25882372206506243,
            -0.31701290585143305
          ],
          [
            -0.4568944661505713,
            -0.44637061693391683,
            -0.15036026579544,
            -1.0208682592010316,
            0.15032547748612166,
            0.4302398432470111,
            0.07520740883076987,
            0.2878982852369861
          ],
          [
            0.06336117770493935,
            -0.36629111132580316,
            -0.06963357244272388,
            0.6396593290599893,
            0.1437382857234346,
            -0.25763222608729164,
            0.21590613954635385,
            -0.4448535743089554
          ],
          [
            0.09635161887087133,
            -0.27495089017146224,
            0.07154776815970201,
            0.4246209970433584,
            -0.35554324479170174,
            -0.38533605977015617,
            0.09010735030342348,
            0.015685343453300412
          ],
          [
            -0.54795948612641,
            0.32133911817651234,
            -0.3502706487141179,
            -0.3344038922239105,
            -0.20819431903938573,
            -1.0279331107689609,
            -0.9675360962166908,
            -0.13088024794813066
          ]
        ],
        "b1": [
          0.0,
          0.0,
          0.0,
          0.0,
          0.0,
          0.0,
          0.0,
          0.0
        ],
        "W2": [
          [
            0.3093257888279808,
            -0.38887141223814703
          ],
          [
            -0.7651560435850449,
            -0.25798500762012294
          ],
          [
            0.7013349631147157,
            0.10129614986271433
          ],
          [
            0.179508707495404,
            -0.057769038337237594
          ],
          [
            -0.28091809458444716,
            -0.1495261591992913
          ],
          [
            -0.15804539887283292,
            -0.01986107362593608
          ],
          [
            -0.927341681260003,
            0.8697740934749554
          ],
          [
            -0.17100118392819907,
            -0.3126715028309124
          ]
        ],
        "b2": [
          0.0,
          0.0
        ]
      },
      "speed": 7,
      "size": 1,
      "vision": 2,
      "efficiency": 25,
      "lifespan": 65
    },
    {
      "weights": {
        "W1": [
          [
            0.3638379213009531,
            -0.3260467824375932,
            0.20443639607854416,
            -1.4805015903814043,
            -0.6702680845297231,
            0.8541785666533964,
            -0.31797480471490563,
            -0.6097274141185661
          ],
          [
            0.5054666171073428,
            -0.41193030575544276,
            -0.44494171456857246,
            -0.9190656485604283,
            0.24093427064095166,
            -0.5929037182651604,
            0.4546242475137318,
            0.5712353642001954
          ],
          [
            1.1440566917029376,
            -0.8541133506204855,
            0.3712008038642286,
            0.5706035211692999,
            0.2393482146954452,
            0.06337818571382303,
            -0.25882372206506243,
            -0.06073587823973498
          ],
          [
            -0.22620208400316502,
            -0.44637061693391683,
            -0.21224893676399859,
            -1.0208682592010316,
            0.15032547748612166,
            0.4302398432470111,
            -0.1860419701008854,
            0.2878982852369861
          ],
          [
            0.06336117770493935,
            -0.36629111132580316,
            -0.06963357244272388,
            0.6396593290599893,
            0.1437382857234346,
            -0.25763222608729164,
            0.21590613954635385,
            -0.4448535743089554
          ],
          [
            0.09635161887087133,
            -0.27495089017146224,
            0.07154776815970201,
            0.4246209970433584,
            -0.35554324479170174,
            -0.38533605977015617,
            0.09010735030342348,
            0.015685343453300412
          ],
          [
            -0.54795948612641,
            0.32133911817651234,
            -0.3502706487141179,
            -0.3344038922239105,
            -0.20819431903938573,
            -1.0279331107689609,
            -0.9675360962166908,
            -0.12192763601687169
          ]
        ],
        "b1": [
          -0.2661016208804059,
          0.0,
          0.0,
          0.0,
          0.0,
          0.0,
          0.0,
          0.0
        ],
        "W2": [
          [
            0.3093257888279808,
            -0.6542700275934146
          ],
          [
            -0.44153205792803746,
            -0.25798500762012294
          ],
          [
            0.7013349631147157,
            0.10129614986271433
          ],
          [
            0.179508707495404,
            -0.057769038337237594
          ],
          [
            -0.28091809458444716,
            -0.1495261591992913
          ],
          [
            -0.15804539887283292,
            -0.01986107362593608
          ],
          [
            -0.927341681260003,
            0.8697740934749554
          ],
          [
            0.5987234234002837,
            -0.3126715028309124
          ]
        ],
        "b2": [
          0.0,
          0.0
        ]
      },
      "speed": 11,
      "size": 7,
      "vision": 1,
      "efficiency": 23,
      "lifespan": 58
    },
    {
      "weights": {
        "W1": [
          [
            0.3638379213009531,
            -0.3260467824375932,
            0.20443639607854416,
            -1.4805015903814043,
            -0.3877905255696003,
            1.0128293671455557,
            -0.31797480471490563,
            -0.6097274141185661
          ],
          [
            0.5460474873069865,
            -0.15053967921388098,
            -0.2503250227458722,
            -0.8534301071538313,
            0.24093427064095166,
            -0.5929037182651604,
            0.4546242475137318,
            0.5712353642001954
          ],
          [
            1.1440566917029376,
            -0.8541133506204855,
            0.3712008038642286,
            0.5706035211692999,
            0.3732759405807359,
            0.06337818571382303,
            -0.25882372206506243,
            -0.06073587823973498
          ],
          [
            -0.4568944661505713,
            -0.44637061693391683,
            -0.15036026579544,
            -1.0892591432507641,
            0.1591341578991493,
            0.4302398432470111,
            0.07520740883076987,
            0.27925534774005734
          ],
          [
            0.06336117770493935,
            -0.36629111132580316,
            -0.06963357244272388,
            0.6396593290599893,
            0.1437382857234346,
            -0.25763222608729164,
            0.21590613954635385,
            -0.4448535743089554
          ],
          [
            0.09635161887087133,
            -0.27495089017146224,
            0.07154776815970201,
            0.4246209970433584,
            -0.35554324479170174,
            -0.38533605977015617,
            0.09010735030342348,
            0.2519358723057197
          ],
          [
            -0.54795948612641,
            0.32133911817651234,
            -0.3502706487141179,
            -0.3344038922239105,
            -0.20819431903938573,
            -1.0279331107689609,
            -0.6083402717174655,
            -0.13088024794813066
          ]
        ],
        "b1": [
          0.0,
          0.0,
          0.0,
          0.0,
          0.0,
          0.0,
          0.0,
          0.0
        ],
        "W2": [
          [
            0.3093257888279808,
            -0.6542700275934146
          ],
          [
            -0.44153205792803746,
            -0.25798500762012294
          ],
          [
            0.7013349631147157,
            0.2721380402625518
          ],
          [
            0.179508707495404,
            -0.057769038337237594
          ],
          [
            -0.6095731717976964,
            -0.1495261591992913
          ],
          [
            -0.15804539887283292,
            -0.01986107362593608
          ],
          [
            -1.1350106381364435,
            0.8697740934749554
          ],
          [
            0.5987234234002837,
            -0.3126715028309124
          ]
        ],
        "b2": [
          0.0,
          0.0
        ]
      },
      "speed": 14,
      "size": 3,
      "vision": 5,
      "efficiency": 23,
      "lifespan": 55
    },
    {
      "weights": {
        "W1": [
          [
            0.13763751712995156,
            0.435017726207194,
            1.2635793691926203,
            0.44462986399229837,
            -0.6048294350973562,
            0.01974713208671989,
            -0.3376757114612325,
            0.2515311390779235
          ],
          [
            -0.12245309303561158,
            0.3790382267649511,
            0.21222075811909477,
            -0.03162906571789632,
            0.2288189951370789,
            -0.06848446614494759,
            0.7873921947494363,
            1.0685532671223652
          ],
          [
            -0.006897665368092734,
            -0.29745322104617444,
            -0.13057572331645667,
            1.3241876963335855,
            0.4368304914173329,
            -0.40189131975967324,
            0.02141927842982176,
            -0.2557901569462804
          ],
          [
            -0.16862373564011587,
            0.5802015703583934,
            -0.29826754534393013,
            -0.21834233388834717,
            -0.030855015850411584,
            -0.3172482154458811,
            -0.37951843486237197,
            0.7434686498040016
          ],
          [
            -0.40193908252511856,
            -0.4772101101554889,
            -0.5641334187771891,
            -0.7208676219106934,
            -0.34992563206736205,
            0.1411306179592707,
            0.3635691464934659,
            0.3949374745055712
          ],
          [
            -0.31908527783402907,
            -0.09565782832044177,
            -0.7613143838805845,
            -0.15679489905927313,
            -0.4117597288644166,
            -1.0360974598898955,
            -0.013376472902820534,
            -0.13620527866026946
          ],
          [
            0.6448190981815997,
            -0.14785999093645447,
            -0.6495267171405906,
            -0.4716656464332158,
            -0.12153453159068936,
            0.2407613755136806,
            -0.7252950239945641,
            -0.32276800027976926
          ]
        ],
        "b1": [
          0.0,
          0.0,
          0.0,
          0.0,
          0.0,
          0.06995935063180027,
          0.0,
          0.0
        ],
        "W2": [
          [
            1.0963007243574672,
            -0.09371298595155866
          ],
          [
            -0.48622549517239305,
            0.09037121698567992
          ],
          [
            -0.6459554930846515,
            -0.33675094414254675
          ],
          [
            -0.3176780960782196,
            -0.17681324971936369
          ],
          [
            -0.168097156914839,
            -0.3007334381653286
          ],
          [
            -0.19166813099295277,
            -0.4797359866536304
          ],
          [
            -0.1503826991834854,
            0.14094526260654622
          ],
          [
            -0.4040160581300879,
            0.3693255093262788
          ]
        ],
        "b2": [
          0.0,
          -0.3743474209120193
        ]
      },
      "speed": 8,
      "size": 42,
      "vision": 22,
      "efficiency": 3,
      "lifespan": 25
    },
    {
      "weights": {
        "W1": [
          [
            0.13763751712995156,
            -0.017289964993045637,
            1.2635793691926203,
            0.44462986399229837,
            -0.6048294350973562,
            0.01974713208671989,
            -0.3376757114612325,
            0.26239315574086547
          ],
          [
            -0.12245309303561158,
            0.16377378239051335,
            0.21222075811909477,
            -0.03162906571789632,
            0.04342557558235069,
            -0.06848446614494759,
            0.7873921947494363,
            1.193465409919721
          ],
          [
            -0.006897665368092734,
            -0.29745322104617444,
            -0.13057572331645667,
            1.3241876963335855,
            0.4368304914173329,
            -0.40189131975967324,
            0.02141927842982176,
            -0.2557901569462804
          ],
          [
            -0.16862373564011587,
            0.5802015703583934,
            -0.29826754534393013,
            -0.21834233388834717,
            -0.030855015850411584,
            -0.3172482154458811,
            -0.37951843486237197,
            0.7434686498040016
          ],
          [
            -0.40193908252511856,
            -0.18411922308155515,
            -0.5641334187771891,
            -0.7208676219106934,
            -0.34992563206736205,
            0.1411306179592707,
            0.3635691464934659,
            0.3949374745055712
          ],
          [
            -0.31908527783402907,
            -0.09565782832044177,
            -0.7613143838805845,
            -0.15679489905927313,
            -0.4117597288644166,
            -1.0360974598898955,
            -0.013376472902820534,
            -0.13620527866026946
          ],
          [
            0.6448190981815997,
            -0.14785999093645447,
            -0.6495267171405906,
            -0.4716656464332158,
            -0.12153453159068936,
            0.2407613755136806,
            -0.7252950239945641,
            -0.32276800027976926
          ]
        ],
        "b1": [
          0.0,
          0.0,
          -0.47941368589436406,
          0.0,
          0.0,
          0.0,
          0.0,
          0.0
        ],
        "W2": [
          [
            1.0963007243574672,
            -0.09371298595155866
          ],
          [
            -0.48622549517239305,
            0.09037121698567992
          ],
          [
            -0.6459554930846515,
            -0.33675094414254675
          ],
          [
            -0.3176780960782196,
            -0.145071397232187
          ],
          [
            -0.168097156914839,
            -0.3007334381653286
          ],
          [
            -0.19166813099295277,
            -0.4797359866536304
          ],
          [
            -0.1503826991834854,
            -0.03838215507592741
          ],
          [
            -0.07013417091368832,
            0.3693255093262788
          ]
        ],
        "b2": [
          0.04737738117451906,
          0.0
        ]
      },
      "speed": 1,
      "size": 45,
      "vision": 26,
      "efficiency": 2,
      "lifespan": 26
    }
  ]
}